{"version":"0.7.0","architecture":"SlimmableContainer","config":{"submodels":[{"max_value":0.5,"model":{"version":"0.7.0","metadata":{"date":{"year":2026,"month":5,"day":14,"hour":18,"minute":24,"second":26},"loudness":-15.293041229248047,"gain":0.8113212397818927},"architecture":"WaveNet","config":{"layers":[{"input_size":1,"condition_size":1,"head":{"out_channels":1,"kernel_size":16,"bias":true},"channels":3,"kernel_sizes":[6,6,6,6,6,6,6,6,6,6,6,6,6,6,15,15,6,6,6,6,6,6,6],"dilations":[1,3,7,17,41,101,239,1,3,7,17,41,101,239,1,13,1,3,7,17,41,101,239],"activation":[{"type":"LeakyReLU","negative_slope":0.01},{"type":"LeakyReLU","negative_slope":0.01},{"type":"LeakyReLU","negative_slope":0.01},{"type":"LeakyReLU","negative_slope":0.01},{"type":"LeakyReLU","negative_slope":0.01},{"type":"LeakyReLU","negative_slope":0.01},{"type":"LeakyReLU","negative_slope":0.01},{"type":"LeakyReLU","negative_slope":0.01},{"type":"LeakyReLU","negative_slope":0.01},{"type":"LeakyReLU","negative_slope":0.01},{"type":"LeakyReLU","negative_slope":0.01},{"type":"LeakyReLU","negative_slope":0.01},{"type":"LeakyReLU","negative_slope":0.01},{"type":"LeakyReLU","negative_slope":0.01},{"type":"LeakyReLU","negative_slope":0.01},{"type":"LeakyReLU","negative_slope":0.01},{"type":"LeakyReLU","negative_slope":0.01},{"type":"LeakyReLU","negative_slope":0.01},{"type":"LeakyReLU","negative_slope":0.01},{"type":"LeakyReLU","negative_slope":0.01},{"type":"LeakyReLU","negative_slope":0.01},{"type":"LeakyReLU","negative_slope":0.01},{"type":"LeakyReLU","negative_slope":0.01}],"bottleneck":3,"head1x1":{"active":false,"out_channels":1,"groups":1},"layer1x1":{"active":true,"groups":1},"groups_input":1,"groups_input_mixin":1,"conv_pre_film":{"active":false,"shift":true,"groups":1},"conv_post_film":{"active":false,"shift":true,"groups":1},"input_mixin_pre_film":{"active":false,"shift":true,"groups":1},"input_mixin_post_film":{"active":false,"shift":true,"groups":1},"activation_pre_film":{"active":false,"shift":true,"groups":1},"activation_post_film":{"active":false,"shift":true,"groups":1},"layer1x1_post_film":{"active":false,"shift":true,"groups":1},"head1x1_post_film":{"active":false,"shift":true,"groups":1},"gating_mode":["none","none","none","none","none","none","none","none","none","none","none","none","none","none","none","none","none","none","none","none","none","none","none"],"secondary_activation":[null,null,null,null,null,null,null,null,null,null,null,null,null,null,null,null,null,null,null,null,null,null,null],"slimmable":null}],"head":null,"head_scale":0.014629261913394446},"weights":[6.146245956420898,-7.94526481628418,7.868005752563477,-0.8919469118118286,0.09036554396152496,0.7327057123184204,1.4520618915557861,2.1060121059417725,2.2456181049346924,0.8841878771781921,0.02794400043785572,-0.7077311277389526,-1.5933524370193481,-2.25475811958313,-2.375150442123413,-0.9549130201339722,0.04579879343509674,0.6256118416786194,1.5018868446350098,2.498257875442505,2.2307653427124023,0.8070759773254395,-0.1393679976463318,-0.7848775386810303,-1.8456125259399414,-2.609656572341919,-2.8424384593963623,-1.008868932723999,0.051668524742126465,0.8661274909973145,1.9611108303070068,2.897052049636841,3.2158000469207764,1.0348553657531738,-0.09787794947624207,-0.9612160325050354,-2.0091795921325684,-3.0064425468444824,-3.219237804412842,-0.7763198018074036,0.3006668984889984,1.06032395362854,2.133960008621216,2.6042838096618652,2.4021692276000977,0.925327718257904,-0.2600800693035126,-1.218784213066101,-2.2959961891174316,-2.830644369125366,-2.5549397468566895,-0.7893952131271362,0.39295390248298645,1.2952758073806763,2.2853620052337646,2.835507869720459,2.5850844383239746,9.979084014892578,11.178959846496582,9.827967643737793,0.9321933388710022,-0.7432144284248352,0.8241534233093262,-0.8223196268081665,-0.22806107997894287,0.0815000906586647,-0.4914714992046356,0.5370221138000488,-1.2449123859405518,2.2040419578552246,-1.576714277267456,1.4700868129730225,-4.3274030685424805,1.4938580989837646,1.1728435754776,-2.052837371826172,-1.8824423551559448,-1.9267187118530273,-1.6215914487838745,-1.6446547508239746,-1.4298795461654663,-0.12105635553598404,-0.2101988047361374,-0.09713885933160782,-0.07666563987731934,0.13178445398807526,0.8852342367172241,0.9439225792884827,0.4737103283405304,0.6162487268447876,0.7524967789649963,0.14403317868709564,-0.28477662801742554,0.2864254117012024,0.31956425309181213,0.254092276096344,0.12988920509815216,0.12181873619556427,0.11578734964132309,-0.16371890902519226,-0.2718786597251892,-0.28075364232063293,-0.7735843658447266,-0.5775817036628723,-0.2094184011220932,0.07316388934850693,0.035311851650476456,-0.1876637041568756,-0.3400530517101288,-0.0759332999587059,-0.454063355922699,-0.3559357523918152,-0.33715513348579407,-0.24060310423374176,-0.46088194847106934,-0.34666481614112854,-0.20144599676132202,0.6080795526504517,0.2981830835342407,0.4139319360256195,0.27638867497444153,-0.19427578151226044,-1.0948948860168457,-0.15158362686634064,-0.03647957369685173,-0.35052919387817383,-0.22893089056015015,0.3212805688381195,0.5396950244903564,1.3239725828170776,-0.5382667779922485,0.2687026560306549,-0.14626790583133698,-0.041987158358097076,1.9403682947158813,0.27990373969078064,-0.3032693862915039,-0.7551960945129395,0.5363205671310425,-0.8393539786338806,-0.6774069666862488,-0.34290269017219543,2.453765869140625,1.7617888450622559,-0.8093327283859253,1.031782865524292,-1.3110307455062866,-0.28774794936180115,0.028270145878195763,-0.06057916581630707,0.15552008152008057,0.09281858056783676,0.31625619530677795,0.06816484034061432,0.03438280522823334,0.07785904407501221,-0.1236582100391388,-0.4448964595794678,0.20762121677398682,-0.07160516083240509,0.038297493010759354,0.06939713656902313,0.004441536962985992,-0.16543632745742798,-0.03560226038098335,0.46946823596954346,0.3217463493347168,0.3213287889957428,-0.1868588626384735,-0.6730305552482605,-0.20892959833145142,-0.21408043801784515,-0.11887942254543304,-0.14501963555812836,0.04023263603448868,0.2355879247188568,0.10415901988744736,0.07533104717731476,0.10412567108869553,0.12298762053251266,-0.0405900739133358,-0.14060869812965393,0.18318670988082886,-0.04571028798818588,0.169823557138443,0.2637510299682617,0.3910752534866333,0.7904316186904907,0.40948450565338135,0.05413464456796646,0.005928667727857828,-0.10625055432319641,-0.03365039452910423,0.0882219448685646,0.9419749975204468,-0.02397225610911846,0.05553368106484413,0.09478731453418732,0.32741686701774597,0.4116571247577667,0.49202919006347656,-0.9056800007820129,-1.1018327474594116,-0.32834920287132263,0.15936116874217987,-0.19491203129291534,0.0302142146974802,-0.48376837372779846,0.5417517423629761,-0.2195190191268921,-0.9560977220535278,0.7744848132133484,-0.41024160385131836,1.3800222873687744,-1.6528124809265137,0.01935487613081932,-0.3073621988296509,0.4474561810493469,-0.6689950227737427,-0.051474880427122116,-0.05633100867271423,-0.07662409543991089,-0.07342176139354706,0.541332483291626,-0.3919161260128021,0.10147856175899506,0.10183737426996231,0.21071983873844147,0.21852906048297882,0.32587793469429016,-0.6465630531311035,0.016805652529001236,0.0345049723982811,0.08282071352005005,0.15837803483009338,0.32136061787605286,-0.8298354148864746,-0.16712425649166107,-0.387929767370224,-0.41314125061035156,-0.49133041501045227,-0.14596626162528992,-0.5593582391738892,0.10377301275730133,0.138504296541214,0.07921338826417923,0.215422585606575,0.10162416845560074,1.1884557008743286,-0.012875880114734173,-0.04270004853606224,-0.13834699988365173,-0.19947434961795807,-0.005564912687987089,0.6310091614723206,0.05440697446465492,0.5619640946388245,0.8659408092498779,1.4050885438919067,-0.05223218724131584,0.05571223422884941,0.019853921607136726,-0.2315249741077423,-0.3380759060382843,-0.05194395035505295,-0.011303680017590523,0.11426252871751785,0.035460904240608215,0.11924198269844055,0.30537086725234985,0.5510163307189941,-0.0436423122882843,0.0385100357234478,0.8235212564468384,0.5486480593681335,-0.17584733664989471,-0.3054110109806061,0.02915879897773266,0.08791092038154602,0.08681602030992508,0.7554602026939392,-0.19588333368301392,0.5422545075416565,-0.3915211260318756,-0.41416677832603455,-0.8747883439064026,-0.21049602329730988,-1.2774087190628052,1.171878457069397,-0.15874958038330078,-0.5665839314460754,0.13410209119319916,0.13847020268440247,0.0933498740196228,0.3362200856208801,-0.046475157141685486,0.18322785198688507,-0.28186631202697754,-0.17759114503860474,0.06535639613866806,0.010680263862013817,-0.13075171411037445,-0.5693314671516418,-0.14359009265899658,-0.09451790153980255,0.06716836988925934,0.030869241803884506,0.08796628564596176,-0.02776026539504528,0.1470572054386139,0.15177355706691742,0.16685400903224945,0.2479868084192276,0.5568870902061462,0.37549883127212524,0.009999536909162998,-0.002114101778715849,-0.059702977538108826,-0.034333452582359314,0.7896590232849121,-0.6702553033828735,0.012324514798820019,0.017095208168029785,-0.006756753195077181,0.012404247187077999,-0.5321852564811707,-0.3525095582008362,0.21385642886161804,0.21304287016391754,0.30014654994010925,0.3479975461959839,0.25927090644836426,0.45424941182136536,-0.043035838752985,-0.07177487015724182,-0.05212715268135071,-0.0009476899285800755,-0.23140978813171387,0.47346821427345276,-0.009493083693087101,-0.004621308296918869,0.005746153648942709,0.0054136463440954685,0.27278172969818115,0.26856544613838196,-0.0745907574892044,0.45195186138153076,0.27766087651252747,0.015784943476319313,0.054490722715854645,-0.11814611405134201,0.04962337017059326,-0.2898912727832794,-0.19969291985034943,0.32160112261772156,-0.03336082026362419,-0.07874317467212677,-0.47743433713912964,0.8939864039421082,-0.6028845310211182,0.48352736234664917,-0.3624242842197418,-0.16012193262577057,0.0029912421014159918,0.002398574259132147,0.00912014115601778,0.052158843725919724,0.029397496953606606,-0.9033438563346863,0.017376743257045746,0.01238330826163292,0.01441989466547966,0.03906712681055069,0.044728804379701614,-0.6457704305648804,0.004807122517377138,0.005018157418817282,0.0048185549676418304,0.015089166350662708,0.015154576860368252,-0.3348848521709442,-0.038734667003154755,-0.025763491168618202,0.001028784434311092,-0.03939220309257507,-0.01228810753673315,0.3564654290676117,0.00038467583362944424,-0.008221196010708809,-0.027626950293779373,-0.06932371109724045,-0.10069561004638672,0.1185973659157753,-0.004973929841071367,-0.005059744697064161,-0.005389385391026735,-0.022401023656129837,-0.009015415795147419,0.08730367571115494,0.0007565186242572963,-0.008237631060183048,-0.0068741547875106335,-0.00645705871284008,0.13406632840633392,1.0831880569458008,-0.011592322029173374,-0.009882671758532524,-0.01228347048163414,-0.02384244091808796,0.0682009905576706,0.4002654254436493,-0.005490305367857218,-0.004655985627323389,-0.004215195309370756,-0.004981241188943386,0.026696356013417244,0.23068033158779144,0.20412495732307434,-0.0487687811255455,-0.14621150493621826,-0.06138426437973976,0.45451870560646057,0.5176194310188293,0.501440167427063,-0.28753089904785156,-0.5815760493278503,0.23450817167758942,0.45872005820274353,-0.3236001133918762,-0.10019895434379578,-0.8174724578857422,0.30573710799217224,0.48909541964530945,0.02902626246213913,-0.007079528644680977,-0.0590006448328495,-0.049490731209516525,-0.022964974865317345,-0.014035450294613838,-0.12100981175899506,-0.6158583760261536,-0.042354825884103775,-0.02032199501991272,-0.04074007645249367,-0.04193803295493126,-0.05641939118504524,-0.4281049370765686,-0.02331230789422989,-0.011231468059122562,-0.01740674301981926,-0.012883923016488552,-0.03970547020435333,-0.14427043497562408,-0.08827659487724304,-0.06515087932348251,-0.0545511394739151,-0.1682589203119278,-0.07840429246425629,0.1893334537744522,-0.05129054933786392,-0.03971589729189873,-0.06467050313949585,-0.08318398892879486,-0.03618581220507622,0.5108158588409424,-0.028745921328663826,-0.020779870450496674,-0.026803359389305115,-0.047097619622945786,-0.02432318963110447,-0.23070351779460907,-0.006452271714806557,0.04803711920976639,0.004434660542756319,0.07188364118337631,-0.015908440575003624,0.3604843020439148,0.0075710671953856945,0.02578970603644848,0.008889073505997658,0.03334793075919151,-0.019658593460917473,0.38494521379470825,0.003645006800070405,0.012400276027619839,0.0049387002363801,0.017635861411690712,-0.004508080426603556,-0.22703447937965393,-0.38657400012016296,-0.46533697843551636,-0.1943112015724182,-0.11776882410049438,0.2595866918563843,-0.006456073839217424,0.2324158400297165,0.32531383633613586,-0.505018949508667,-0.41161829233169556,-0.8187357783317566,-0.06991000473499298,0.7041965126991272,1.5731077194213867,0.07761253416538239,-0.17556607723236084,0.5432220697402954,-0.23693640530109406,0.00793132372200489,-0.1233196035027504,0.20605504512786865,0.2170514315366745,-0.18868140876293182,-0.004682253114879131,-0.060462139546871185,-0.022978801280260086,-0.2254718691110611,0.18378590047359467,0.287169873714447,0.45069620013237,0.03491213917732239,-0.022349994629621506,0.05575868859887123,0.07652301341295242,-0.3114783763885498,-0.49114078283309937,-0.25618478655815125,-0.006636271718889475,0.18395496904850006,0.24543730914592743,-0.10464932769536972,-0.13218992948532104,0.24464228749275208,-0.08641929179430008,-0.12431978434324265,0.15476572513580322,0.16080662608146667,-0.19842438399791718,0.0355093739926815,0.08019963651895523,-0.14084967970848083,0.06256929785013199,0.38542771339416504,-0.3526022732257843,0.21226255595684052,-0.06930507719516754,0.05889400094747543,0.007319982163608074,-0.10012655705213547,-0.23383234441280365,0.1285189688205719,-0.02157515287399292,0.01739792339503765,0.025176718831062317,-0.09396578371524811,-0.4541330933570862,-0.07978061586618423,0.09982456266880035,0.00654194038361311,-0.0027366357389837503,0.09549933671951294,0.2465164065361023,-0.27826622128486633,0.027031276375055313,-0.24190551042556763,0.24057865142822266,0.0276369396597147,-0.02521679922938347,0.2917129695415497,0.01415175385773182,0.33725810050964355,-0.4700855314731598,-0.31676042079925537,0.19577369093894958,0.9430418014526367,0.7247968912124634,-0.33323752880096436,0.10679957270622253,0.47814497351646423,-0.05206897109746933,-0.10452079772949219,0.1262749284505844,0.02895566076040268,-0.11572076380252838,-0.21751996874809265,0.25903719663619995,-0.02148020826280117,0.02919032797217369,-0.021532483398914337,-0.05873095244169235,-0.11162898689508438,-0.6122684478759766,0.0007917920593172312,-0.009817557409405708,-0.029616402462124825,-0.005541553720831871,-0.0222090445458889,0.7517962455749512,0.025955919176340103,0.04801056534051895,0.07620224356651306,-0.3065946400165558,-0.0973832979798317,0.5095871686935425,0.16793788969516754,0.049970220774412155,0.11249486356973648,0.014415321871638298,-0.05160389840602875,-0.157806858420372,0.051326192915439606,0.05608905851840973,-0.06363814324140549,0.19466421008110046,-0.1148957684636116,-0.15757042169570923,0.09576144814491272,-0.09276232868432999,0.17148615419864655,0.28268909454345703,0.07179651409387589,-0.1948796659708023,0.12058816105127335,-0.009943564422428608,0.0338192842900753,0.08915159851312637,0.011402672156691551,0.03480972722172737,0.010281044989824295,0.01262429915368557,0.09021128714084625,-0.059642087668180466,0.0663304328918457,-0.043219562619924545,0.8249716758728027,-0.3542051911354065,0.07703117281198502,1.8422366380691528,-0.254794716835022,-0.9124612212181091,-0.20683260262012482,-0.0006917861173860729,0.47423145174980164,0.4542081654071808,-0.21264143288135529,-0.07625223696231842,-0.877125084400177,0.04067946970462799,0.2032681554555893,0.23279882967472076,0.6827544569969177,-0.6397335529327393,0.1534791737794876,0.04685172066092491,0.1705160290002823,0.104141004383564,-0.04377741366624832,-0.031163794919848442,0.285522997379303,-0.12117254734039307,-0.04674385488033295,0.12284263968467712,0.16446508467197418,0.30019891262054443,-0.31334948539733887,-0.13058538734912872,-0.10251852124929428,-0.10178820043802261,0.06822418421506882,0.11888100951910019,0.9691895246505737,0.7026798725128174,0.3680492639541626,0.22403131425380707,-0.14069385826587677,-0.5384678840637207,0.35094791650772095,0.5279906988143921,0.5438134670257568,0.3754476308822632,0.15387946367263794,0.07924658060073853,0.22311967611312866,0.03183558210730553,-0.18892452120780945,-0.1256502866744995,0.09725688397884369,-0.10280034691095352,0.09088504314422607,0.36943843960762024,-0.08898156136274338,0.05655182898044586,-0.015591979958117008,0.5795940160751343,-0.018756315112113953,0.23188863694667816,0.3550466299057007,0.20294639468193054,-0.06987224519252777,-0.4154182970523834,0.18991759419441223,0.33216238021850586,0.29349303245544434,0.1684565544128418,-0.033092569559812546,-0.6492959260940552,0.4121895134449005,0.2096015065908432,0.04836050420999527,-0.42588362097740173,0.5760599970817566,-0.6694587469100952,-0.48152533173561096,0.6960996389389038,0.2156510353088379,0.7793153524398804,-0.40251249074935913,-1.1291828155517578,0.6156840920448303,-0.516970157623291,-0.21544641256332397,0.5495787262916565,0.47858214378356934,-0.31038084626197815,0.07750089466571808,-0.009776631370186806,-0.13003350794315338,-0.18522118031978607,0.10668844729661942,0.5035877823829651,0.052215494215488434,-0.02055972069501877,0.013408291153609753,-0.021511932834982872,0.02033185213804245,-0.25069528818130493,-0.055824100971221924,-0.004175109788775444,-0.1588132679462433,-0.1302489936351776,-0.09081563353538513,-0.1587299108505249,-0.03273952007293701,0.010193190537393093,-0.060004666447639465,-0.08844912052154541,0.10215795785188675,-0.47900018095970154,0.006278139539062977,0.0012451580259948969,-0.004248338285833597,0.035713184624910355,-0.00546980882063508,-0.48976966738700867,-0.022746989503502846,0.0043267919681966305,-0.012606291100382805,-0.12479385733604431,0.04207437112927437,0.3817753493785858,0.1809350997209549,0.06726426631212234,-0.0431227833032608,-0.03377149999141693,0.30487385392189026,-0.0980171337723732,0.002460222691297531,-0.022028133273124695,-0.06971383094787598,0.016509072855114937,-0.010958939790725708,0.18737293779850006,0.08255233615636826,0.09085902571678162,0.08888962119817734,-0.06107135862112045,-0.0416492335498333,-0.5455183982849121,0.7072531580924988,-2.010277509689331,0.01963012106716633,-0.23101718723773956,0.5867620706558228,-0.6277860403060913,-0.5142313838005066,0.7741684317588806,-0.05184241756796837,0.4300013780593872,1.4989862442016602,0.06442276388406754,0.25817301869392395,0.022895541042089462,0.5543193221092224,-0.22773446142673492,0.23357251286506653,0.49305522441864014,0.06982813775539398,-0.0543597936630249,-0.05218193307518959,0.3575955033302307,0.02462342381477356,0.26096561551094055,0.021670112386345863,0.02585996501147747,0.055901095271110535,0.0329500250518322,0.332316130399704,-0.3641029894351959,0.033052459359169006,-0.047698501497507095,-0.1735304594039917,0.05517004802823067,-0.5479892492294312,0.2732219696044922,-0.013240378350019455,-0.0031500246841460466,-0.0017680663149803877,-0.018875040113925934,-0.015825681388378143,0.22266653180122375,0.02116503193974495,0.013477480970323086,0.008656703867018223,-0.0023759102914482355,-0.042443569749593735,-0.5682975649833679,-0.04363951459527016,-0.02936786413192749,-0.01621236465871334,-0.006308566778898239,0.07639262825250626,-0.31017836928367615,0.05950552970170975,-0.08819007873535156,-0.22308363020420074,-0.035290323197841644,-0.020635096356272697,0.5482074618339539,-0.08631757646799088,-0.1636669635772705,-0.12803301215171814,-0.1303945779800415,-0.05828681215643883,0.26369717717170715,0.13394063711166382,0.2190164178609848,0.09072265028953552,0.18490281701087952,0.0580805204808712,-0.09544200450181961,0.3044534921646118,-0.6938695907592773,0.07591866701841354,0.4926100969314575,0.046506594866514206,-0.6498792767524719,0.2060893476009369,-0.256802499294281,-0.7016955018043518,0.1902749240398407,0.7710375785827637,-0.11277616769075394,-0.44552844762802124,0.5047338008880615,0.35031813383102417,-0.06905099004507065,-0.485596239566803,0.617675244808197,0.009622422978281975,0.010000187903642654,0.0003928205987904221,0.010959016159176826,-0.006400358863174915,-0.2105630338191986,-0.0037958764005452394,0.0055292630568146706,-0.0009045912884175777,-0.006372456438839436,-0.020062534138560295,-0.41891342401504517,0.008051210083067417,-0.0030597238801419735,0.0003722090623341501,0.015567547641694546,0.021016696467995644,0.6346085071563721,0.024389615282416344,0.022047847509384155,-0.02339484542608261,0.1675262749195099,0.2342412918806076,0.2704525291919708,0.12702462077140808,0.1282797008752823,0.12921924889087677,0.1594870239496231,0.13806618750095367,-0.3437536358833313,-0.17422102391719818,-0.17813989520072937,-0.20574934780597687,-0.1337054967880249,-0.12133622914552689,0.06440628319978714,-0.10069850087165833,-0.09330931305885315,-0.1342756301164627,-0.10690566897392273,-0.1977328509092331,0.36519870162010193,-0.06134912371635437,-0.06546759605407715,-0.09999363869428635,-0.1241932362318039,-0.10628131777048111,-0.36309030652046204,0.02721855230629444,0.0383191853761673,0.06945452094078064,0.12714606523513794,0.053760867565870285,0.0921877846121788,0.8477858304977417,-0.062030401080846786,0.3822847306728363,-0.47842544317245483,0.11841888725757599,-0.1833185851573944,-0.029421366751194,0.120755136013031,-0.966309666633606,0.36201900243759155,-0.14403577148914337,0.04291202127933502,-1.3174831867218018,0.4262196719646454,-0.2251465916633606,0.7887648940086365,0.15426529943943024,-1.4263314008712769,0.005397675093263388,0.07878223061561584,0.05921133980154991,0.04111447185277939,0.06432707607746124,0.2397623360157013,-0.000997390365228057,0.04233849048614502,0.026787402108311653,0.0010536359623074532,-0.007564440835267305,-0.9493520855903625,0.0039290436543524265,-0.0506165511906147,-0.034783873707056046,0.016410235315561295,0.03249217942357063,0.29408499598503113,-0.021936139091849327,-0.023183755576610565,-0.025638455525040627,-0.0313626192510128,-0.03420712798833847,-0.1788954883813858,-0.017168955877423286,-0.04481004923582077,-0.03303450718522072,-0.038187216967344284,-0.056252073496580124,0.6940300464630127,0.02153710089623928,0.0696265771985054,0.04435048997402191,0.053698696196079254,0.08563529700040817,0.056997623294591904,0.12043433636426926,0.10676360130310059,0.11249615252017975,0.1094798594713211,0.13063469529151917,-1.0209052562713623,0.06910751014947891,0.18303486704826355,0.09356086701154709,0.08895887434482574,0.056475646793842316,0.6029115319252014,-0.06411156803369522,-0.2700323164463043,-0.11144526302814484,-0.09580592066049576,-0.04394175857305527,0.2895562946796417,-0.42162102460861206,-1.3418304920196533,0.08387847989797592,-0.2168482393026352,0.48858869075775146,-0.042887184768915176,0.5563850998878479,-0.31123048067092896,0.4572247564792633,-0.3291037678718567,-1.0663942098617554,-0.030100570991635323,0.6200380325317383,-0.4013463258743286,-0.009893522597849369,0.6305233240127563,1.094558596611023,-1.035574197769165,0.0010782991303130984,0.010953663848340511,-0.0003949527454096824,0.16105279326438904,0.05093832314014435,-0.0030469971243292093,-0.009444774128496647,-0.048439182341098785,0.026848232373595238,-0.08298150449991226,0.049890559166669846,0.07986236363649368,0.15061427652835846,0.08172187954187393,0.2509915828704834,-0.06252286583185196,-0.015777572989463806,0.025048287585377693,0.11857934296131134,-0.04761737957596779,-0.03271959349513054,-0.024270659312605858,0.043310876935720444,-0.07454358786344528,-0.11834979802370071,-0.16047920286655426,0.11509484052658081,0.17677108943462372,-0.06275592744350433,-0.8336043953895569,-0.022736264392733574,0.19151745736598969,0.052737168967723846,-0.09702558815479279,-0.07510656863451004,-0.1514284461736679,0.046786483377218246,0.09321890771389008,0.09451702237129211,-0.09218689799308777,0.024314314126968384,-0.10226887464523315,-0.3652903139591217,0.005294125061482191,0.33289387822151184,0.04970219358801842,0.010175133123993874,-0.04374397546052933,0.01304676290601492,-0.020494073629379272,-0.026701172813773155,0.06390982866287231,0.10977619886398315,-0.06322487443685532,-0.05010830610990524,0.03025921620428562,-0.0886991024017334,-0.09444303065538406,0.1262342631816864,0.20608305931091309,0.13291724026203156,-0.016913704574108124,0.036424338817596436,0.058489974588155746,0.10013367980718613,-0.008741617202758789,0.018657200038433075,0.15790294110774994,0.1502983421087265,0.13583800196647644,0.17813782393932343,0.6366848349571228,0.8167957663536072,0.8622633218765259,0.24788682162761688,-0.14164675772190094,0.11952827125787735,-0.126672625541687,-0.1700284779071808,0.20410668849945068,-0.19910067319869995,-0.10960005223751068,-0.035695888102054596,-0.08560170978307724,-0.20887497067451477,-0.1512995958328247,0.037403691560029984,0.0415496826171875,-0.038220468908548355,-0.9541464447975159,-0.2073633223772049,-0.08239520341157913,-0.05416450649499893,0.103716179728508,-0.06247197836637497,-0.06024210527539253,0.007411228027194738,-0.07362619042396545,0.23652946949005127,0.04192590340971947,-0.0898577868938446,-0.24540439248085022,-0.013258712366223335,0.2145933210849762,0.2839328646659851,-0.14558586478233337,-0.01229544635862112,-0.04367605596780777,0.06052792817354202,-0.08803946524858475,0.007957451045513153,0.20926864445209503,0.2056945115327835,0.3229916989803314,0.18452516198158264,0.21611671149730682,-0.2241499423980713,-0.04268574342131615,0.09757934510707855,-0.33159753680229187,0.23301096260547638,0.018228698521852493,-0.01041308045387268,0.1974666267633438,-0.004173934459686279,-0.08117073029279709,-0.13017097115516663,0.06452383100986481,-0.29560697078704834,-0.10283888131380081,0.22307275235652924,-0.12413714081048965,0.0463106594979763,-0.05434723198413849,0.012616453692317009,1.0924911499023438,0.37097597122192383,1.0092744827270508,-0.7274201512336731,0.23558582365512848,-0.46245500445365906,-0.27453669905662537,-0.2903900146484375,-0.7189654111862183,0.14698880910873413,0.749991238117218,1.0490119457244873,-0.826495885848999,0.8056955933570862,0.5096094012260437,0.05304984375834465,2.1643803119659424,-0.6485211253166199,-0.0884178951382637,-0.07046450674533844,0.19078360497951508,-0.012617520987987518,-0.10902486741542816,0.18036217987537384,-0.06571295112371445,0.2097647488117218,-0.21218353509902954,0.1832895278930664,-0.08833204954862595,-0.03368745744228363,-0.11578254401683807,-0.49083569645881653,-0.7205361127853394,0.167231947183609,-0.28871774673461914,-0.07751060277223587,0.2954654395580292,0.011831656098365784,0.07105361670255661,0.1902472823858261,0.2433227300643921,0.19330264627933502,0.1718115657567978,0.24689848721027374,-0.0014154562959447503,0.03223137930035591,-0.07461677491664886,-0.28537696599960327,0.01550859585404396,0.29025986790657043,0.08695892989635468,0.018418345600366592,-0.012093891389667988,0.04744367673993111,-0.12591992318630219,-0.2033863663673401,-0.17957496643066406,-0.21697735786437988,-0.11721853911876678,-0.017017455771565437,0.06836777925491333,0.05411957949399948,0.07786411046981812,0.009084241464734077,0.0006503922049887478,-0.011818902567029,0.0007643310818821192,0.0005443667178042233,0.0028145601972937584,-0.0026454876642674208,-0.005905602127313614,0.0014636772684752941,-0.015211337246000767,0.008238735608756542,-0.010078735649585724,-0.02190449833869934,-0.012330607511103153,-0.46719199419021606,-0.04280901700258255,-0.041605543345212936,-0.0685277208685875,-0.06538950651884079,-0.07925602793693542,-0.06475837528705597,-0.056472595781087875,-0.06737367063760757,-0.05728544667363167,-0.0719851478934288,-0.08304157108068466,-0.06155616044998169,-0.10320290178060532,-0.09733620285987854,0.29576659202575684,0.03291030600667,0.03187413886189461,0.05581920966506004,0.04614769294857979,0.06792274862527847,0.048721618950366974,0.04244787245988846,0.05231872946023941,0.045755546540021896,0.05833255499601364,0.06531431525945663,0.05133006349205971,0.0811288058757782,0.08489768207073212,1.0498356819152832,0.05475752800703049,-0.005837539676576853,0.08640923351049423,0.0066126808524131775,0.14078985154628754,0.06977052241563797,-0.05812200531363487,0.08449927717447281,0.1239231750369072,0.3432719111442566,0.18932515382766724,0.26707789301872253,-0.09017878025770187,-0.329890638589859,-0.002781164599582553,-0.004147645086050034,0.05798892304301262,0.04274704307317734,0.014322507195174694,0.09886224567890167,0.018101979047060013,-0.01042899303138256,0.149213507771492,0.06623067706823349,0.22231286764144897,0.22136461734771729,0.24166810512542725,0.20120413601398468,-0.031218430027365685,-0.48470160365104675,0.04830557480454445,-0.037442851811647415,0.023369766771793365,0.00382002885453403,0.019029630348086357,0.026358479633927345,0.028230469673871994,-0.048021990805864334,0.019431347027420998,0.03542925789952278,-0.016511617228388786,-0.07435733079910278,-0.1071983277797699,-0.04945289343595505,-1.1644636392593384,-0.38934800028800964,-2.4497244358062744,-0.12365187704563141,-0.10596977174282074,-1.1387856006622314,-0.0739237442612648,0.9455499649047852,0.028965288773179054,-0.22023923695087433,0.7335506081581116,-0.2906714975833893,-0.41209882497787476,-0.05223580449819565,-1.0757118463516235,-0.7175421118736267,-2.3378779888153076,2.11557936668396,2.2269020080566406,0.12033446878194809,0.167610302567482,-0.2084977775812149,0.07451369613409042,0.440254807472229,-0.15265868604183197,-0.0048437099903821945,-0.034692149609327316,-0.04704287648200989,0.10182656347751617,-0.4575370252132416,-0.138703390955925,-0.2116095870733261,0.16133607923984528,0.0434596985578537,0.2732935845851898,-0.4394287168979645,-0.4238516688346863,-0.19412004947662354,-0.173534095287323,-0.5021820068359375,-0.16024088859558105,-0.18475103378295898,-0.4121072292327881,0.38008973002433777,0.4098946452140808,0.3068961203098297,0.3682035803794861,0.11925972253084183,0.6378410458564758,-0.15918377041816711,-0.1238236203789711,0.2513450086116791,1.0830683708190918,-0.9854679703712463,0.7639055252075195,0.15854261815547943,-0.08301708847284317,0.10889263451099396,-0.12786002457141876,-0.6218193769454956,-0.6157660484313965,-0.1422051042318344,-0.08843997120857239,0.059543680399656296,0.2044232338666916,0.742190420627594,0.7528449892997742,0.43478116393089294,0.4204678237438202,0.3103105127811432,0.16079187393188477,0.8646590709686279,1.4470046758651733,-0.4011048674583435,1.0757983922958374,1.2105047702789307,0.1509619951248169,0.26121270656585693,0.18964317440986633,0.05208919197320938,-0.19683821499347687,-0.2733883261680603,0.8540224432945251,1.1464309692382812,1.4000245332717896,1.341386079788208,0.44792747497558594,1.0237400531768799,-1.553777813911438,0.44924789667129517,-0.07853584736585617,0.29961755871772766,0.352937787771225,0.23860794305801392,0.2132965475320816,0.456419974565506,0.1567969024181366,-0.04153997078537941,0.05076223611831665,0.5531672835350037,0.41792982816696167,-0.39758238196372986,0.2997390329837799,0.24346020817756653,-0.21821802854537964,0.07680349051952362,-0.30238500237464905,-0.2780424654483795,0.7709440588951111,-0.13717879354953766,-0.20146925747394562,-0.05269410088658333,-0.005542070604860783,-0.39570677280426025,-1.1801435947418213,0.17641553282737732,0.26201924681663513,0.5841355919837952,-0.3314542770385742,0.12749943137168884,1.061965823173523,0.06032068654894829,-0.11726011335849762,-0.13332919776439667,-0.8146101832389832,-0.4341959059238434,1.1070307493209839,-0.003390622092410922,-0.05918655917048454,0.07101152837276459,-0.32711341977119446,-0.28589141368865967,-0.005344871897250414,0.043731238692998886,-0.03475688770413399,0.1507059782743454,0.20336733758449554,0.15850868821144104,-0.11812547594308853,0.0945926383137703,-0.22791966795921326,-0.024164600297808647,0.14836344122886658,0.5582749247550964,0.004950649105012417,-0.3387977182865143,0.39420849084854126,-0.02128615602850914,-0.0039168065413832664,0.1272914707660675,-0.03363490849733353,0.6191757917404175,0.4501761794090271,0.1772044599056244,-0.3725372552871704,0.32206594944000244,0.31441229581832886,-0.6961421966552734,0.7726628184318542,-0.35945606231689453,-0.3934260904788971,0.7043214440345764,0.1541874259710312,-0.3471553325653076,-0.4181947708129883,-0.4345621168613434,-0.3248858153820038,-0.11198820918798447,-0.03814394026994705,-0.42897525429725647,-0.5543606281280518,-0.4391272962093353,-0.29691049456596375,-0.15074795484542847,-0.08082219958305359,-0.3840249478816986,-0.4565165042877197,-0.26660865545272827,-0.21018412709236145,-0.14961959421634674,0.024469975382089615,0.23178492486476898,0.44486215710639954,-0.2728920578956604,-0.10334783047437668,-0.12014830857515335,0.2458227127790451,0.09345166385173798,0.08052524924278259,0.1499059945344925,0.014627085067331791,-0.2866400480270386,0.35572752356529236,0.19214454293251038,0.15440796315670013,0.1994728147983551,-0.0664084255695343,0.2990074157714844,0.45019811391830444,0.7283543348312378,-0.24720609188079834,0.028357602655887604,-0.0021029473282396793,-0.17854243516921997,-0.6468520760536194,0.030924323946237564,0.34007614850997925,-0.07997220009565353,0.22124141454696655,0.16442620754241943,0.5409592986106873,-0.3066653609275818,0.2074790894985199,0.09953195601701736,0.09775228053331375,-0.032438427209854126,-0.2086840122938156,-0.0007166953291743994,-0.2679067850112915,0.2799489200115204,-0.00031361717265099287,0.11902880668640137,-0.08919007331132889,0.1918586641550064,0.11758680641651154,1.4219273328781128,-0.15665748715400696,0.07572581619024277,0.34209662675857544,0.1723824292421341,-0.43209245800971985,0.5578943490982056,-0.2510790228843689,0.10039015859365463,0.01850104331970215,0.10137536376714706,0.000626566237770021,0.284797340631485,0.02004791609942913,-0.14896626770496368,0.4440860152244568,-0.09069385379552841,-0.08032426983118057,-0.34219640493392944,-0.0036128282081335783,-0.10013941675424576,0.3767516314983368,0.0851486325263977,-0.14175494015216827,0.11505428701639175,-0.40974825620651245,-0.03282932937145233,0.005972743034362793,-0.5474128127098083,-0.9541235566139221,-1.0558956861495972,-0.5587080121040344,-0.17131243646144867,-0.14753444492816925,0.5673916339874268,-1.0478649139404297,-1.0924028158187866,-0.4243578314781189,0.06751000881195068,0.02366464026272297,0.127216175198555,-0.5832809805870056,-0.9959112405776978,-0.3799915611743927,-0.17418624460697174,0.12247063964605331,0.030060304328799248,0.10022015869617462,0.07880999892950058,-0.02778509631752968,0.030248837545514107,-0.0752677395939827,-0.09638886153697968,-0.008667967282235622,0.008168241009116173,-0.33660998940467834,-0.020014487206935883,-0.45236316323280334,0.07359512895345688,-0.13230952620506287,-0.03113175369799137,-0.0888894721865654,0.07230807095766068,-0.13120530545711517,-0.058065563440322876,-0.0002918404352385551,-0.0016278073890134692,0.06370794028043747,0.00134642596822232,-0.0028883861377835274,-0.9613565802574158,-1.2010071277618408,0.34292182326316833,-0.41779810190200806,0.3607475757598877,0.6031854152679443,-0.5404605865478516,0.022268429398536682,0.03642655536532402,-0.14687561988830566,0.5485293865203857,0.3558390438556671,0.07895661145448685,0.3667964041233063,0.2325243204832077,0.0457674004137516,-0.17159034311771393,-0.04042842239141464,0.12286977469921112,0.16355057060718536,0.05648414045572281,0.010782066732645035,0.13626641035079956,0.23832790553569794,0.2861185073852539,0.16211925446987152,0.21200686693191528,-0.35459572076797485,-0.08336244523525238,0.6020888090133667,0.03340382128953934,-0.015429767780005932,-0.12175377458333969,-0.13458022475242615,0.5248627662658691,-0.13410261273384094,0.10933423787355423,0.06638351827859879,0.22903688251972198,0.23895682394504547,0.7001073956489563,0.36160218715667725,-0.189947247505188,-0.1147189810872078,0.1691158562898636,-0.3497079908847809,0.4774435758590698,0.3435916006565094,0.12369417399168015,0.1410146951675415,0.18154917657375336,0.22074724733829498,0.560623049736023,0.15570370852947235,0.06421437114477158,-0.0705740824341774,0.0878932848572731,-0.12059129029512405,0.09854297339916229,-0.45346376299858093,-0.30639949440956116,-0.4790076017379761,-0.5668628215789795,-0.3079141080379486,-0.3031300902366638,0.004027710296213627,0.10857520997524261,0.06657932698726654,-0.11384367942810059,0.023955298587679863,0.04202413558959961,0.028800878673791885,-0.8772425651550293,1.3272733688354492,-0.7703834772109985,0.07158415764570236,0.2164594829082489,0.4656617045402527,-0.45941928029060364,-0.24756191670894623,-1.5271896123886108,-0.01954859122633934,0.15674473345279694,-0.0007147438591346145,-0.15933258831501007,-0.05871898680925369,-0.34457728266716003,0.19411975145339966,0.32343214750289917,0.02728866972029209,0.08056151121854782,-0.20720216631889343,0.05448665842413902,0.21275001764297485,0.04125102981925011,0.3740093410015106,-0.20751601457595825,0.0987439677119255,-0.11402995884418488,0.23984825611114502,-0.27933764457702637,0.29413795471191406,0.8104284405708313,-0.6803370118141174,-0.41605255007743835,0.3646771013736725,-0.648963987827301,0.04097916558384895,0.29372119903564453,-0.5238564610481262,-1.3207314014434814,-0.5955965518951416,-0.06966068595647812,-0.12364871799945831,1.224946141242981,0.4798278212547302,-0.5920048952102661,0.44661852717399597,-0.046983953565359116,0.2603952884674072,0.13245035707950592,0.04909666255116463,0.26228177547454834,-0.1675860434770584,-0.26141229271888733,0.002601359970867634,-0.07848527282476425,0.1759607195854187,0.020490353927016258,-0.15751169621944427,-0.05339832976460457,-0.36586520075798035,0.14433786273002625,-0.07353895902633667,0.08970041573047638,-0.2114831656217575,0.2693338394165039,-0.24513839185237885,0.1580115109682083,-0.00041967706056311727,0.022697333246469498,-0.016881339251995087,0.0006942718755453825,0.014814148657023907,-0.23979628086090088,-0.24825693666934967,-0.16218630969524384,-0.5744649767875671,-0.11466430127620697,0.3207305073738098,-0.7532715201377869,-0.4187026023864746,0.8027921319007874,-0.01475803554058075,0.07143890857696533,-0.001492225332185626,-0.04232366010546684,-0.006911116186529398,0.10436108708381653,-0.032049987465143204,-0.09788791835308075,-0.20685437321662903,0.024257462471723557,-0.07495632022619247,0.014970791526138783,0.03990710526704788,0.2773827612400055,0.15412963926792145,-0.029163861647248268,0.010032822377979755,0.10285947471857071,-0.10367351025342941,0.20413124561309814,-0.1884859949350357,0.26252758502960205,-0.03779040649533272,-0.3297659754753113,-0.26007702946662903,1.0430302619934082,-0.09534324705600739,-0.2809791564941406,0.0007139191729947925,-0.5053264498710632,-0.18352973461151123,0.6028841137886047,-0.2249578833580017,0.5138616561889648,0.3925531506538391,0.3461560606956482,0.5474410653114319,-0.1749531775712967,0.40301236510276794,0.04910684749484062,-0.006393969524651766,-0.10239673405885696,0.03787686303257942,0.0770939365029335,0.19582295417785645,-0.019754650071263313,0.08648090064525604,-0.007633799687027931,-0.05135950818657875,-0.23796464502811432,-0.08613410592079163,0.02504798024892807,-0.00889473408460617,-0.08713215589523315,0.11442576348781586,-0.1927814483642578,0.18148206174373627,0.19865015149116516,-0.0009322287514805794,-0.015391508117318153,0.0006178810726851225,0.000788287608884275,0.010575405322015285,-5.95589682396584e-39,1.3463131941428684e-38,1.614046539905386e-38,-6.355151979824338e-39,1.3049612968501824e-38,-7.274189373756377e-39,1.6609603309328236e-38,-1.9412878466434603e-38,-1.3079865601048132e-38,-2.006512264574384e-39,1.492056221833896e-38,-1.8939525450379537e-38,0.0012579370522871614,0.0022619562223553658,0.0022191847674548626,0.0015091863460838795,0.0012326851719990373,0.0018272121669724584,0.003390824655070901,0.0044963243417441845,0.003466266905888915,0.0014209537766873837,0.0004883359069935977,0.0010121361119672656,0.0027724283281713724,0.004159150645136833,0.0032001310028135777,0.0007816042634658515,-0.000980169395916164,-0.0035590522456914186,-0.005619452800601721,-0.006799415219575167,-0.005573137663304806,-0.0014687759103253484,0.004003047477453947,0.007025307044386864,0.007276051212102175,0.006329332944005728,0.004361192230135202,0.0014059393433853984,-0.000261126144323498,-0.002377304947003722,-0.005396654829382896,-0.004840923473238945,-0.0008479772950522602,-0.0011388915590941906,-0.0005420083180069923,3.29558206431102e-05,-5.409005825640634e-05,-0.0019932289142161608,-0.005198142025619745,-0.007342302240431309,-0.006500838790088892,-0.004604082088917494,-0.003409710945561528,-0.0029471884481608868,-0.002898666076362133,-0.001391074387356639,0.000579039566218853,0.0015572627307847142,0.15983182191848755,0.014629261568188667],"sample_rate":48000.0}},{"max_value":1.0,"model":{"version":"0.7.0","metadata":{"date":{"year":2026,"month":5,"day":15,"hour":18,"minute":45,"second":3},"loudness":-14.980307579040527,"gain":0.8163577877750383},"architecture":"WaveNet","config":{"layers":[{"input_size":1,"condition_size":1,"head":{"out_channels":1,"kernel_size":16,"bias":true},"channels":8,"kernel_sizes":[6,6,6,6,6,6,6,6,6,6,6,6,6,6,15,15,6,6,6,6,6,6,6],"dilations":[1,3,7,17,41,101,239,1,3,7,17,41,101,239,1,13,1,3,7,17,41,101,239],"activation":[{"type":"LeakyReLU","negative_slope":0.01},{"type":"LeakyReLU","negative_slope":0.01},{"type":"LeakyReLU","negative_slope":0.01},{"type":"LeakyReLU","negative_slope":0.01},{"type":"LeakyReLU","negative_slope":0.01},{"type":"LeakyReLU","negative_slope":0.01},{"type":"LeakyReLU","negative_slope":0.01},{"type":"LeakyReLU","negative_slope":0.01},{"type":"LeakyReLU","negative_slope":0.01},{"type":"LeakyReLU","negative_slope":0.01},{"type":"LeakyReLU","negative_slope":0.01},{"type":"LeakyReLU","negative_slope":0.01},{"type":"LeakyReLU","negative_slope":0.01},{"type":"LeakyReLU","negative_slope":0.01},{"type":"LeakyReLU","negative_slope":0.01},{"type":"LeakyReLU","negative_slope":0.01},{"type":"LeakyReLU","negative_slope":0.01},{"type":"LeakyReLU","negative_slope":0.01},{"type":"LeakyReLU","negative_slope":0.01},{"type":"LeakyReLU","negative_slope":0.01},{"type":"LeakyReLU","negative_slope":0.01},{"type":"LeakyReLU","negative_slope":0.01},{"type":"LeakyReLU","negative_slope":0.01}],"bottleneck":8,"head1x1":{"active":false,"out_channels":1,"groups":1},"layer1x1":{"active":true,"groups":1},"groups_input":1,"groups_input_mixin":1,"conv_pre_film":{"active":false,"shift":true,"groups":1},"conv_post_film":{"active":false,"shift":true,"groups":1},"input_mixin_pre_film":{"active":false,"shift":true,"groups":1},"input_mixin_post_film":{"active":false,"shift":true,"groups":1},"activation_pre_film":{"active":false,"shift":true,"groups":1},"activation_post_film":{"active":false,"shift":true,"groups":1},"layer1x1_post_film":{"active":false,"shift":true,"groups":1},"head1x1_post_film":{"active":false,"shift":true,"groups":1},"gating_mode":["none","none","none","none","none","none","none","none","none","none","none","none","none","none","none","none","none","none","none","none","none","none","none"],"secondary_activation":[null,null,null,null,null,null,null,null,null,null,null,null,null,null,null,null,null,null,null,null,null,null,null],"slimmable":null}],"head":null,"head_scale":0.014629261913394446},"weights":[3.3482367992401123,-2.9092347621917725,3.7617504596710205,-3.2051985263824463,4.266658306121826,3.394791603088379,-3.8514046669006348,-4.150537014007568,-0.08315902203321457,-0.3155670464038849,-0.5754587650299072,-0.5807475447654724,-0.4786262512207031,-0.5240087509155273,0.08844819664955139,0.2804456651210785,0.5174347758293152,0.5116741061210632,0.41895610094070435,0.47401848435401917,-0.09438058733940125,-0.3108792006969452,-0.6016738414764404,-0.5948687195777893,-0.49251383543014526,-0.5520821809768677,0.08395299315452576,0.2878749668598175,0.5479748249053955,0.5522909164428711,0.4477388560771942,0.5036255121231079,-0.04330972209572792,-0.29069608449935913,-0.6303884983062744,-0.6484116911888123,-0.5026532411575317,-0.5954004526138306,-0.08651857823133469,-0.3029332160949707,-0.5685910582542419,-0.5764719247817993,-0.4573667049407959,-0.5149845480918884,0.07635191082954407,0.3135358691215515,0.6089356541633606,0.6081632375717163,0.4935404360294342,0.5594314932823181,0.07535893470048904,0.3271380364894867,0.6437693238258362,0.6459199786186218,0.5060697793960571,0.5818228721618652,-0.11621363461017609,-0.32945770025253296,-0.4848872423171997,-0.5708612203598022,-0.5399101376533508,-0.47153744101524353,0.11055013537406921,0.30038756132125854,0.43464717268943787,0.5087345838546753,0.47972315549850464,0.4109014570713043,-0.11345305293798447,-0.34153124690055847,-0.515692412853241,-0.5997297167778015,-0.5773085951805115,-0.48639434576034546,0.10946027934551239,0.3186480700969696,0.4632287323474884,0.5459186434745789,0.5166381597518921,0.4431135654449463,-0.07187195122241974,-0.3656424880027771,-0.5532158613204956,-0.645373523235321,-0.6011267900466919,-0.5154927968978882,-0.111038438975811,-0.32255807518959045,-0.4797916114330292,-0.5699079632759094,-0.5338916778564453,-0.46156540513038635,0.11105822026729584,0.34739020466804504,0.5123439431190491,0.6145662665367126,0.5691076517105103,0.4858520030975342,0.08301841467618942,0.3551156222820282,0.52531498670578,0.6415913105010986,0.5903052091598511,0.5174163579940796,-0.14956174790859222,0.01341225579380989,0.19054070115089417,0.18207810819149017,0.18843790888786316,0.1833697110414505,0.10765984654426575,-0.021550046280026436,-0.1637730598449707,-0.15038760006427765,-0.16098836064338684,-0.1577465981245041,-0.1759839951992035,0.009245239198207855,0.19994387030601501,0.19346864521503448,0.2045554667711258,0.1940506398677826,0.13139422237873077,-0.014972012490034103,-0.17781002819538116,-0.16805219650268555,-0.17813779413700104,-0.1718568205833435,-0.2601200044155121,-0.02892921306192875,0.2103983759880066,0.21691641211509705,0.22212263941764832,0.20075136423110962,-0.1438894271850586,0.013933994807302952,0.18526114523410797,0.1723320037126541,0.18550695478916168,0.17760437726974487,0.18030399084091187,-0.002986015286296606,-0.19971683621406555,-0.19184371829032898,-0.20363304018974304,-0.19231918454170227,0.2127726674079895,0.012101417407393456,-0.2110300213098526,-0.2210894227027893,-0.22583945095539093,-0.21203844249248505,-0.13553936779499054,-0.12153416872024536,-0.15844769775867462,-0.16832949221134186,-0.06582027673721313,0.059192247688770294,0.10265646129846573,0.10267309099435806,0.08868549019098282,0.13146424293518066,0.0313866101205349,-0.08376377075910568,-0.08642639219760895,-0.08189225941896439,-0.16407553851604462,-0.1290585994720459,-0.05618701130151749,0.02563793957233429,0.07918896526098251,0.11684410274028778,0.1541811227798462,0.12351584434509277,0.017425261437892914,-0.05057292804121971,-0.1661357879638672,-0.13660098612308502,-0.12007547169923782,-0.1219746321439743,-0.07468311488628387,0.05499127134680748,-0.06404309719800949,-0.0914536640048027,-0.16408663988113403,-0.14321407675743103,-0.04598790034651756,0.07185772806406021,0.12737920880317688,0.13480891287326813,0.15734422206878662,0.10387967526912689,0.0608220212161541,-0.04644276574254036,0.07249817252159119,0.08691296726465225,0.16185879707336426,0.09605656564235687,0.0575861930847168,-0.01971646398305893,0.09695824235677719,-0.04750071093440056,-0.2401537299156189,-0.29595252871513367,-0.17681381106376648,-0.04376818612217903,-0.06984643638134003,0.029909633100032806,0.19197924435138702,0.21577739715576172,0.1312689483165741,0.04972226545214653,0.10865981876850128,-0.049161575734615326,-0.25450724363327026,-0.2736074924468994,-0.17261230945587158,-0.069136843085289,-0.09668255597352982,0.04318573698401451,0.21395203471183777,0.24097400903701782,0.17334842681884766,0.06564779579639435,0.14981487393379211,-0.04506327956914902,-0.2823635935783386,-0.29786545038223267,-0.18079064786434174,-0.07774167507886887,0.09302294999361038,-0.03220402076840401,-0.212417334318161,-0.2567141354084015,-0.1725536286830902,-0.059042781591415405,-0.1202855333685875,0.02497837133705616,0.22553546726703644,0.27259573340415955,0.16387620568275452,0.06583836674690247,-0.15245845913887024,0.0058564855717122555,0.2909350097179413,0.3265771269798279,0.21880589425563812,0.08473493903875351,0.06549905985593796,0.5356271266937256,1.0334446430206299,1.0254265069961548,0.8217077255249023,0.6983873248100281,-0.08907881379127502,-0.47315266728401184,-0.9018510580062866,-0.8815367817878723,-0.7009524703025818,-0.6082035303115845,0.06271720677614212,0.563905656337738,1.1054778099060059,1.095166802406311,0.853604257106781,0.7506139874458313,-0.08354652673006058,-0.5264756083488464,-0.9875470995903015,-0.9695749878883362,-0.7739112377166748,-0.6696034669876099,0.026723390445113182,0.6237422227859497,1.2132383584976196,1.2044817209243774,0.9673200845718384,0.8245494365692139,0.07277912646532059,0.5398036241531372,1.0241137742996216,1.0006945133209229,0.7961342930793762,0.6867367625236511,-0.054922282695770264,-0.5888526439666748,-1.1186456680297852,-1.1076440811157227,-0.8727480173110962,-0.7674905061721802,-0.07451634109020233,-0.6150229573249817,-1.2015557289123535,-1.199277639389038,-0.9323087930679321,-0.8387211561203003,-0.2523859441280365,-0.6482349634170532,-0.9852025508880615,-1.0598504543304443,-0.9209200143814087,-0.7181069254875183,0.23958146572113037,0.5639892220497131,0.8458389639854431,0.9135540723800659,0.7915066480636597,0.6056095957756042,-0.26678967475891113,-0.6873899698257446,-1.0476038455963135,-1.1420010328292847,-0.9872978329658508,-0.7565649151802063,0.24279488623142242,0.6191670298576355,0.9252283573150635,0.9987944960594177,0.8680006861686707,0.6721676588058472,-0.26234787702560425,-0.7673256397247314,-1.169993281364441,-1.272049069404602,-1.0935384035110474,-0.8559717535972595,-0.2566969394683838,-0.6422986388206482,-0.9662538170814514,-1.0375396013259888,-0.9040969610214233,-0.6956497430801392,0.2633822560310364,0.7015247344970703,1.057589054107666,1.1499998569488525,0.9960265159606934,0.761463463306427,0.27321261167526245,0.7405697107315063,1.1570093631744385,1.231050968170166,1.0726051330566406,0.835236132144928,0.2197609841823578,0.450554221868515,0.9421802759170532,1.0408519506454468,0.8815333843231201,0.5888893604278564,-0.1968233585357666,-0.39468929171562195,-0.816866934299469,-0.8805875778198242,-0.7492440938949585,-0.49728116393089294,0.22576269507408142,0.4705883860588074,1.0148789882659912,1.100749135017395,0.9483411908149719,0.6093922257423401,-0.2073749452829361,-0.43201717734336853,-0.8928591012954712,-0.9716935157775879,-0.8292920589447021,-0.5502090454101562,0.2045862078666687,0.5217685103416443,1.1348621845245361,1.2622054815292358,1.0825883150100708,0.6943386197090149,0.2055746167898178,0.44753801822662354,0.9206043481826782,1.0068397521972656,0.8608015179634094,0.5710485577583313,-0.21620038151741028,-0.4879392981529236,-1.025715708732605,-1.1194583177566528,-0.95473712682724,-0.6235486268997192,-0.2333381026983261,-0.5433250069618225,-1.1256704330444336,-1.2513864040374756,-1.0627044439315796,-0.6869253516197205,-0.23990577459335327,-0.23985476791858673,1.2931407690048218,-1.0811190605163574,0.48077505826950073,0.4061109721660614,-0.012772596441209316,0.014204194769263268,-0.19771893322467804,-0.1735965609550476,0.06460043787956238,0.14546722173690796,-0.049390461295843124,0.23687191307544708,-0.2256213277578354,0.1942072957754135,0.11368350684642792,-0.1646733582019806,0.4862070083618164,-0.6453874111175537,0.2589060068130493,0.1841110736131668,-0.05951961874961853,0.21206311881542206,0.5266351699829102,0.5440003871917725,-0.2869689464569092,0.24907520413398743,0.15630120038986206,-0.6907110810279846,0.7001153230667114,-0.5688654184341431,-0.7321664690971375,-0.9032363295555115,0.3011264503002167,0.1895913928747177,-0.11826572567224503,1.1457046270370483,-1.180409550666809,1.421186923980713,0.4449710547924042,0.3099651038646698,-0.49431484937667847,0.737332820892334,-0.2602682113647461,-0.6466379165649414,0.004172230139374733,-0.4345304071903229,-0.6910681128501892,-0.526618480682373,-0.008043639361858368,0.15416434407234192,-0.3061220645904541,0.8051201701164246,-0.7558978199958801,0.6995683312416077,-0.7053741812705994,-0.6313530802726746,-0.2673672139644623,0.5273163318634033,-0.4300989508628845,0.3981086313724518,-0.7244012355804443,0.46384501457214355,0.08837714791297913,0.0949917733669281,-0.07732754945755005,-0.4270649254322052,0.3890151381492615,-0.09997778385877609,0.0037306295707821846,-0.3146204650402069,0.7667710781097412,0.309713214635849,-0.2536771297454834,0.2561049163341522,-0.11379610747098923,-0.5984160304069519,0.2808608114719391,-0.536811888217926,1.9214637279510498,-0.9328214526176453,-0.47782450914382935,-1.4675214290618896,-0.6723329424858093,-1.1091020107269287,1.5479992628097534,-0.5987635850906372,0.17598408460617065,0.3304433822631836,0.22712144255638123,0.21611303091049194,0.07708535343408585,0.2799742519855499,0.08942556381225586,0.014695585705339909,-0.030833307653665543,0.16581164300441742,-0.26552167534828186,-0.31845393776893616,-0.19483616948127747,-0.11310366541147232,-0.18561340868473053,-0.21904176473617554,0.09760978817939758,0.21725456416606903,-0.21459592878818512,-0.3157303035259247,-0.17040899395942688,-0.010364885441958904,-0.09880676865577698,-0.3065440058708191,-0.26693013310432434,-0.05820908397436142,-0.22503761947155,-0.31002891063690186,-0.012260357849299908,0.3331705629825592,-0.23188994824886322,-0.4306629002094269,-0.19339370727539062,-0.4277753531932831,-0.0729135274887085,0.06721203774213791,0.20086556673049927,0.14878243207931519,0.19648310542106628,0.2422269731760025,0.12035265564918518,0.2556910812854767,-0.013965306803584099,-0.14314387738704681,-0.033638808876276016,0.07818209379911423,-0.3897451162338257,-0.32551810145378113,0.2998831570148468,0.35321685671806335,0.23872849345207214,0.2527433931827545,0.23778918385505676,0.41034960746765137,0.17012737691402435,0.16135825216770172,0.07481461018323898,0.14922669529914856,-0.11269501596689224,-0.5775397419929504,-0.15283498167991638,0.0008751441491767764,-0.27111852169036865,-0.1781187206506729,-0.027536213397979736,0.45257386565208435,-0.04154524579644203,-0.23176702857017517,-0.08487574011087418,-0.1441461592912674,-0.20301243662834167,-0.37731850147247314,-0.21246032416820526,-0.15129625797271729,-0.35696107149124146,-0.2079722136259079,0.05950864031910896,0.5255154371261597,-0.46954530477523804,-0.3885593116283417,-0.39137357473373413,-0.3899814486503601,-0.09595426172018051,0.32665202021598816,0.07824426144361496,0.05860808119177818,0.14195683598518372,0.15933319926261902,0.15634924173355103,0.17852412164211273,0.0704357922077179,0.005198356229811907,0.13086199760437012,0.062090106308460236,-0.01460488885641098,-0.36265286803245544,-0.13545328378677368,-0.10525419563055038,-0.10769900679588318,-0.07748296856880188,-0.07723479717969894,-0.09777521342039108,-0.009212551638484001,0.02913622371852398,0.11793188005685806,0.06848648190498352,0.08546297997236252,-0.07484198361635208,-0.119298055768013,-0.03322281315922737,0.09812776744365692,0.02806791290640831,0.017998814582824707,0.38994497060775757,0.1930634081363678,0.10601809620857239,0.09326957166194916,0.11997395753860474,0.08030052483081818,0.07891432195901871,0.05308729410171509,0.18292202055454254,0.06203887239098549,0.034406594932079315,0.07798337936401367,0.13410526514053345,0.17882034182548523,0.06802397221326828,-0.09553423523902893,-0.15792663395404816,-0.046808332204818726,0.021948108449578285,-0.11518680304288864,-0.050649624317884445,-0.151449054479599,-0.08631296455860138,-0.13414527475833893,-0.11566431075334549,0.10194814205169678,0.06936409324407578,-0.027298608794808388,0.09197798371315002,0.0057794782333076,-0.014468943700194359,0.5426003336906433,0.45847198367118835,0.2899753153324127,0.433733731508255,0.44304388761520386,0.5640171766281128,0.07841017097234726,-0.0868322029709816,0.026469731703400612,0.09553230553865433,-0.07161255925893784,-0.5024722218513489,-0.18136823177337646,-0.1537502408027649,-0.15144547820091248,-0.17683136463165283,0.010012872517108917,0.5650135278701782,-0.1110449805855751,-0.35905712842941284,-0.1092415601015091,-0.04574593901634216,0.0004989549634046853,-0.21209420263767242,-0.2629317343235016,-0.13955795764923096,-0.331399530172348,-0.1885901838541031,-0.009048922918736935,0.14478498697280884,-0.44301870465278625,-0.17797167599201202,-0.3149751126766205,-0.1823710948228836,-0.057921312749385834,0.23466293513774872,0.3431990444660187,0.2894198000431061,0.30557548999786377,0.4785670340061188,0.505806028842926,0.4649810791015625,-0.08038178086280823,-0.008460210636258125,0.28229209780693054,-0.028773341327905655,-0.27660122513771057,-0.16788089275360107,0.6187982559204102,0.530642032623291,0.6359046101570129,0.5920970439910889,0.3245602548122406,0.24272683262825012,-0.11409199982881546,-0.18249772489070892,-0.161989226937294,-0.17087291181087494,-0.09375537186861038,0.357183575630188,0.27534663677215576,0.12194478511810303,0.3932913839817047,0.1056685671210289,-0.2023458629846573,-0.8192492127418518,-0.43642204999923706,-0.3987828195095062,-0.3379969596862793,-0.31684327125549316,-0.23651644587516785,0.1149250939488411,0.15502306818962097,0.09058817476034164,0.11664430797100067,0.11723506450653076,-0.03803197294473648,-0.508981466293335,-0.28307223320007324,-0.11018102616071701,-0.08282175660133362,0.09676522016525269,-0.23130550980567932,-0.3741440176963806,0.04662436991930008,0.12330871820449829,0.03426351398229599,0.08937601745128632,0.14992637932300568,0.17564275860786438,-0.1583235114812851,-0.14742779731750488,-0.5319359302520752,-0.12864744663238525,0.21240220963954926,0.29217392206192017,0.21544407308101654,0.16826221346855164,0.17360572516918182,0.2557640075683594,0.19043202698230743,0.20686574280261993,-0.011179241351783276,-0.05241967737674713,-0.06972959637641907,-0.16559822857379913,0.11850347369909286,0.011717213317751884,0.0910949856042862,0.1584562212228775,0.10499042272567749,0.1501632034778595,0.012493002228438854,-0.2478710114955902,-0.42085450887680054,-0.19482950866222382,-0.17956827580928802,-0.12936465442180634,-0.13765178620815277,-0.08718449622392654,0.04142986238002777,-0.08979879319667816,0.1384018063545227,0.08324789255857468,-0.2212170511484146,-0.25709670782089233,-0.1838957518339157,-0.07342059165239334,-0.16718581318855286,0.0011105043813586235,-0.28613221645355225,-0.28524330258369446,0.07382991909980774,0.10340191423892975,-0.04589289426803589,0.03124537318944931,0.074353888630867,-0.008403194136917591,-0.2552602291107178,-0.0318584106862545,-0.14937978982925415,-0.23131878674030304,0.09588971734046936,-0.05033940449357033,-0.023407941684126854,-0.009477436542510986,0.004925915505737066,-0.019869046285748482,-0.004923852626234293,-0.05063145235180855,0.10111263394355774,-0.09553119540214539,-0.005331037100404501,0.11221227794885635,-0.03901629522442818,-0.0105843935161829,-0.14600293338298798,0.14191895723342896,0.023637834936380386,-0.07389990985393524,0.11549276858568192,-0.018070979043841362,0.06775949150323868,0.0003554733993951231,0.014980366453528404,0.03519156947731972,-0.017677996307611465,0.10859140008687973,-0.07116062194108963,0.12905065715312958,0.01451682485640049,-0.08026467263698578,0.07190088927745819,0.026052098721265793,0.0009847453329712152,0.12600818276405334,-0.02751803584396839,-0.13081493973731995,0.0341949425637722,0.09405073523521423,0.004309534560889006,-0.006846913602203131,0.018078384920954704,0.00442940928041935,-0.027695348486304283,0.0008801499498076737,0.06424764543771744,-0.05458350479602814,0.0063146259635686874,0.046134863048791885,-0.032792892307043076,0.037139248102903366,-0.41408613324165344,-0.5252543687820435,-0.41774189472198486,-0.42303475737571716,-0.3202117681503296,-0.24784794449806213,0.2489117532968521,0.1615440845489502,0.21989509463310242,0.31797799468040466,0.24507497251033783,0.03004179708659649,-0.0838758647441864,0.08197339624166489,0.008332420140504837,0.021541139110922813,-0.006907175295054913,0.418639212846756,0.009788700379431248,0.20682258903980255,0.10335365682840347,0.18897491693496704,0.06204658001661301,0.05741547793149948,-0.09733904153108597,0.15668624639511108,0.08849193900823593,0.09338828921318054,0.22146882116794586,0.47804689407348633,-0.22960737347602844,-0.03704242780804634,-0.004970087204128504,-0.05357913672924042,-0.036100223660469055,-0.035323355346918106,-0.6639254093170166,-0.47001856565475464,-0.5219277739524841,-0.4585669934749603,-0.41151127219200134,-0.41045135259628296,-0.13278864324092865,0.08582206070423126,0.06849687546491623,0.06366530805826187,0.06927726417779922,-0.1391589194536209,0.32470566034317017,0.49458882212638855,-0.04139327630400658,0.6595737338066101,0.11504970490932465,-0.13975009322166443,0.005759336985647678,-0.2625473737716675,0.03457813709974289,0.04183086007833481,-0.016267549246549606,0.013856342062354088,-0.03523286432027817,-0.0178814884275198,0.0017270420212298632,-0.014390658587217331,0.19391117990016937,-0.010632086545228958,-0.21190033853054047,-0.08636508882045746,-0.034739941358566284,0.01599750854074955,0.014767593704164028,-0.36682239174842834,-0.05446803569793701,0.03600086644291878,0.06903370469808578,-0.3677233159542084,0.1431044191122055,0.08695466071367264,0.18877777457237244,0.4343399107456207,0.2492983192205429,0.1110488623380661,-0.34987974166870117,0.17755642533302307,-0.05127955973148346,-0.4442903995513916,-0.05290196090936661,-0.6386608481407166,-0.07007507979869843,-0.21920207142829895,0.293817937374115,-0.07400844246149063,0.016662590205669403,0.3300565779209137,0.04904279112815857,0.16979442536830902,0.26315873861312866,0.08865237981081009,0.06013189256191254,0.14291635155677795,-0.16381476819515228,-0.254149854183197,-0.19586676359176636,-0.6270598769187927,0.370974600315094,0.10167953372001648,0.3197222054004669,-0.20954978466033936,-0.19980397820472717,0.0572967529296875,-0.1027645617723465,-0.1499291956424713,0.21094417572021484,-0.16303804516792297,0.20576827228069305,-0.17119833827018738,0.12330850958824158,-0.1458141952753067,-0.17925222218036652,0.27343064546585083,0.19240394234657288,-0.26262474060058594,0.02548874542117119,0.09296289086341858,0.050082530826330185,0.12469051033258438,0.02007349766790867,0.35795438289642334,0.27561214566230774,-0.6344706416130066,-0.041066914796829224,-0.40149936079978943,0.5463495254516602,-0.1510162055492401,0.18191100656986237,-0.5480934381484985,-0.023594778031110764,0.11060240864753723,0.025553269311785698,0.035150300711393356,-0.039622511714696884,-0.0952543094754219,-0.05817798152565956,-0.09279731661081314,-0.06160041317343712,0.064137764275074,-0.0706445649266243,-0.03821564465761185,0.054954417049884796,-0.05123448371887207,-0.03182143718004227,-0.026147587224841118,-0.14298123121261597,-0.20072424411773682,0.06817346066236496,-0.06821303069591522,-0.027904381975531578,-0.11767568439245224,-0.07700617611408234,-0.05875983089208603,-0.03792865201830864,0.02855338528752327,0.050584595650434494,-0.04658381640911102,0.07221372425556183,0.046000801026821136,0.015561037696897984,-0.04514124244451523,-0.13097989559173584,0.06504115462303162,0.02204088866710663,0.12394770234823227,0.009335657581686974,0.03684457391500473,0.0317046083509922,-0.06558600068092346,-0.2983962297439575,-0.04098162427544594,0.015164690092206001,-0.01799035258591175,0.002930348739027977,0.055529769510030746,0.028763631358742714,-0.1211661845445633,-0.015761904418468475,-0.12061794847249985,-0.12578806281089783,-0.35700589418411255,-0.27205953001976013,-0.1503906100988388,0.14632338285446167,0.1129411980509758,0.08668056130409241,0.20001734793186188,0.011308759450912476,0.17258433997631073,-0.08989468216896057,0.03255276381969452,0.2115148901939392,0.12615260481834412,0.003062356496229768,-0.1757492572069168,-0.08455090969800949,-0.03397645428776741,-0.07289253175258636,-0.10732514411211014,-0.1241222620010376,0.08995005488395691,0.23847374320030212,0.05545467510819435,0.13772664964199066,0.09658315777778625,-0.011748082004487514,-0.5603914260864258,0.02892984077334404,0.19604572653770447,0.25524261593818665,0.3702617883682251,0.15329445898532867,-0.09707296639680862,-0.237447127699852,-0.12544400990009308,0.04642288759350777,-0.12653619050979614,-0.2408629059791565,-0.004410954192280769,0.12076304852962494,-0.20331236720085144,-0.0236784890294075,-0.017970558255910873,-0.06082557141780853,0.2870040237903595,-0.0027322566602379084,-0.01001624297350645,-0.09864996373653412,-0.04427673667669296,-0.09677271544933319,0.032830219715833664,-0.04841407760977745,0.11715813726186752,0.19390837848186493,0.19266633689403534,0.06150702387094498,0.03226514160633087,-0.05113203451037407,-0.06914179772138596,-0.09741419553756714,-0.06765574961900711,-0.12018633633852005,-0.15501715242862701,-0.005452693440020084,0.05177059397101402,0.028418106958270073,0.035369761288166046,-0.12477312237024307,0.1268436461687088,-0.025375423952937126,-0.00014899222878739238,-0.17633414268493652,-0.007221715524792671,0.12181156128644943,0.11152362823486328,-0.09447323530912399,-0.05436600744724274,0.02653367631137371,0.06565984338521957,-0.13994896411895752,-0.016748644411563873,0.08480775356292725,0.14968742430210114,0.06634888052940369,0.19577725231647491,0.054556991904973984,-0.04425688087940216,0.05542917177081108,-0.024028507992625237,0.05448112264275551,0.09380878508090973,0.05809321999549866,-0.06677158921957016,0.029366621747612953,0.039441902190446854,0.032541532069444656,0.15940868854522705,-0.03539131209254265,0.048443567007780075,-0.06013789400458336,-0.031708974391222,0.011279637925326824,-0.11436935514211655,-0.09812410920858383,-0.14706121385097504,0.07848002761602402,0.24461671710014343,0.23045861721038818,0.08860071003437042,0.03614925220608711,-0.05590464919805527,-0.01632939837872982,0.12748420238494873,-0.08589178323745728,-0.012724201194941998,0.0657939463853836,-0.3145597577095032,0.0756501778960228,0.04711504280567169,0.11513744294643402,0.10092311352491379,0.05188630893826485,0.16243302822113037,-0.045515503734350204,0.033111635595560074,0.21662725508213043,0.15635919570922852,0.07290928810834885,-0.3318652808666229,-0.13722987473011017,-0.0905761867761612,-0.10262273252010345,-0.14238972961902618,-0.013687454164028168,-0.010312189348042011,0.09986775368452072,-0.16361460089683533,-0.27409401535987854,-0.04346831515431404,-0.10587178170681,0.054335806518793106,-0.1458607017993927,-0.030189281329512596,-0.003232659539207816,0.11295655369758606,0.20835934579372406,0.25426286458969116,-0.005151473917067051,-0.057860083878040314,-0.22872485220432281,-0.10099010914564133,-0.19464011490345,0.11121225357055664,0.14280647039413452,0.09628843516111374,0.06795381009578705,0.17949271202087402,0.027029244229197502,-0.5085952281951904,-0.12338157743215561,-0.013691035099327564,-0.2827039361000061,-0.34646061062812805,-0.22182145714759827,0.03293627128005028,0.17355036735534668,0.19858214259147644,0.2445497214794159,0.20691199600696564,0.1763489991426468,-0.3203102648258209,-0.1300622820854187,0.12928113341331482,0.24081124365329742,-0.06844675540924072,-0.059432774782180786,-0.37595221400260925,0.18444101512432098,-0.03914054110646248,0.01761687733232975,0.15904444456100464,0.1643054038286209,0.29602956771850586,0.16244074702262878,-0.04918370023369789,-0.19960837066173553,-0.042603351175785065,-0.03080960363149643,0.5495333671569824,-0.11114145815372467,-0.08355692774057388,-0.3367573618888855,-0.08837882429361343,-0.018635718151926994,0.4034087657928467,0.11782566457986832,0.16014985740184784,0.12896843254566193,0.23377573490142822,0.1369207203388214,0.21393939852714539,0.20777273178100586,0.14702960848808289,0.05314064398407936,0.1112825870513916,0.017941076308488846,-0.01693257875740528,0.14792415499687195,0.0461091585457325,0.057653822004795074,-0.0391436330974102,0.1749461442232132,0.40191850066185,-0.11551705002784729,-0.042271342128515244,0.049331724643707275,-0.09706088900566101,-0.04367868974804878,0.27393612265586853,0.11693888157606125,-0.0019889231771230698,-0.02766970917582512,0.03263505920767784,0.08598992973566055,0.08257920295000076,-0.10641976445913315,-0.2377287745475769,-0.40028148889541626,-0.09184755384922028,-0.1544875204563141,-0.056421343237161636,0.07751951366662979,0.03361554443836212,0.08402716368436813,0.091869056224823,0.05875566229224205,-0.060421984642744064,0.055648598819971085,0.1868247240781784,-0.10180094838142395,-0.27103349566459656,-0.2531328797340393,-0.3501339256763458,0.28258273005485535,0.1673499196767807,0.12624308466911316,0.23805712163448334,0.18828241527080536,-0.06038985401391983,0.030208289623260498,0.06504243612289429,0.009049752727150917,-0.08063852041959763,0.04504787176847458,0.2613964080810547,0.16577193140983582,0.12514281272888184,0.17365936934947968,-0.10733038187026978,0.014303390868008137,-0.2812393009662628,0.02374069020152092,-0.01426783762872219,-0.2129276692867279,-0.03705817461013794,-0.029552998021245003,0.10246384143829346,0.19683480262756348,0.09543078392744064,0.07846134155988693,0.11896656453609467,0.11356087028980255,0.11037169396877289,-0.00860320683568716,0.023830439895391464,-0.273706316947937,-0.09220666438341141,-0.17713262140750885,-0.22019708156585693,-0.17280657589435577,0.12725304067134857,0.13151557743549347,0.15442661941051483,0.10222669690847397,-0.07247991859912872,0.030210740864276886,0.12941867113113403,-0.062483347952365875,0.18331007659435272,0.16520759463310242,0.23571878671646118,0.1134248673915863,-0.04132482036948204,-0.07297120243310928,-0.10562639683485031,-0.13134139776229858,-0.2941255271434784,0.08898121118545532,0.18223349750041962,0.3428344428539276,0.13621598482131958,0.10266910493373871,-0.11888711899518967,-0.06421437114477158,0.00024607981322333217,0.03553307056427002,-0.10613350570201874,0.04437238350510597,-0.20744462311267853,-0.010467507876455784,-0.07414380460977554,0.15294067561626434,0.026128318160772324,-0.0012700745137408376,0.055641911923885345,0.15059024095535278,0.16539767384529114,0.11465808749198914,0.023603880777955055,0.02758548967540264,-0.1376982033252716,-0.18530786037445068,-0.25244253873825073,-0.24765682220458984,-0.2251730114221573,-0.15936918556690216,-0.19579142332077026,-0.01160894613713026,-0.1850474774837494,-0.2335396409034729,-0.3246331214904785,0.03786852955818176,0.18056686222553253,0.22554731369018555,-0.2533266544342041,0.08412706106901169,0.13389211893081665,0.3525293171405792,-0.3111446797847748,-0.27831411361694336,-0.0456172414124012,0.002298295032233,0.010805610567331314,0.009102839045226574,-0.0024584410712122917,-0.06007623299956322,-0.008193322457373142,-0.012888913974165916,-0.012637628242373466,0.051835909485816956,0.036966100335121155,0.06155259534716606,0.1688023805618286,0.006132390350103378,-0.12504242360591888,-0.046973805874586105,-0.24537450075149536,-0.04205549135804176,-0.7288302779197693,-0.4091233015060425,0.37684306502342224,0.33330512046813965,0.4592050313949585,0.3378961384296417,-0.04457157105207443,0.21037612855434418,0.6717479228973389,0.5728067755699158,-0.04472367465496063,-0.12171603739261627,0.0015957780415192246,-0.6254552006721497,-0.3441489338874817,0.21911312639713287,-0.6995303630828857,-0.20695054531097412,-0.03925313428044319,0.3336600661277771,0.30471596121788025,0.45810484886169434,0.14901910722255707,0.033207062631845474,0.799510657787323,0.5561017990112305,-0.3532228171825409,-0.24176400899887085,-0.07353184372186661,-0.469600647687912,-0.03742944821715355,-0.047529108822345734,0.009410129860043526,0.4637049436569214,0.11382648348808289,0.1675085425376892,-0.3764050006866455,-0.4581231474876404,-0.3213999271392822,-0.24256353080272675,-0.14630082249641418,-0.06489504128694534,0.1864258348941803,0.05250990763306618,0.048600342124700546,0.12559272348880768,-0.07147844135761261,-0.2064070701599121,-0.26463791728019714,-0.3849785029888153,0.018259219825267792,-0.047396983951330185,0.20009389519691467,0.3258287310600281,0.224520742893219,0.1283404678106308,0.06923328340053558,0.17473110556602478,-0.3310694396495819,-0.012431444600224495,0.2854616045951843,-0.07409206032752991,-0.22410915791988373,0.10718037188053131,0.1275739073753357,0.17560869455337524,0.12600821256637573,0.009825537912547588,0.05215724930167198,0.0630669817328453,0.03455515578389168,0.014562809839844704,-0.035316016525030136,-0.045747071504592896,-0.2032877802848816,-0.07007825374603271,0.019828692078590393,-0.000528257864061743,0.04222334176301956,0.07272719591856003,-0.0008665812783874571,-0.10239070653915405,-0.05842656269669533,-0.10090720653533936,0.03551318496465683,0.046922747045755386,-0.2240297943353653,0.040608324110507965,0.04233534261584282,0.024453777819871902,0.02097519114613533,0.05222679674625397,-0.18406622111797333,0.007584478706121445,-0.10045414417982101,-0.02627751976251602,-0.0917704626917839,0.04453065246343613,-0.3229294717311859,0.023252101615071297,0.15062706172466278,-0.01214595977216959,-0.04566093161702156,-0.20638766884803772,0.23225754499435425,-0.006865907926112413,-0.015542112290859222,-0.049897700548172,-0.31396540999412537,-0.2074769139289856,0.06002220883965492,0.005930284969508648,-0.00447582034394145,-0.0043779960833489895,0.008924560621380806,-0.10791423916816711,0.056026555597782135,0.03860912472009659,0.018992742523550987,0.05608302727341652,-0.12979918718338013,-0.10723788291215897,-0.4229274094104767,0.021104998886585236,0.0008456503855995834,-0.06030714511871338,-0.04024287313222885,0.11504293233156204,-0.04714243486523628,0.010713642463088036,0.017352154478430748,-0.059451084583997726,-0.05892789363861084,0.09546289592981339,0.10881692171096802,0.003578485921025276,0.034574031829833984,0.0648101195693016,-0.0334368497133255,0.06965246796607971,-0.29737210273742676,-0.009705500677227974,-0.029210543259978294,0.050695523619651794,-0.08442340046167374,-0.09445416927337646,-0.22458778321743011,-0.04048185050487518,0.02719789929687977,0.015183284878730774,0.011541017331182957,-0.23626609146595,-0.27025747299194336,0.0028741953428834677,0.010025572031736374,0.006324274465441704,-0.08034899830818176,0.04892633482813835,0.34431469440460205,-0.01693311519920826,0.03878403455018997,0.10615868866443634,0.11074067652225494,0.16270780563354492,0.06565659493207932,0.0030082056764513254,0.016173282638192177,-0.08811739832162857,0.04110462963581085,-0.00974765419960022,0.5576072335243225,0.03648332878947258,0.13299345970153809,0.1692630797624588,0.11600026488304138,-0.17023958265781403,-0.15120738744735718,0.0246884785592556,-0.011339226737618446,-0.022753436118364334,-0.1203162744641304,-0.29226842522621155,-0.4147028923034668,-0.005118496250361204,-0.09873183071613312,-0.21605443954467773,-0.12205542623996735,0.01781025528907776,0.06092095375061035,-0.008062533102929592,-0.04299337789416313,-0.04909524321556091,-0.05959611386060715,-0.15907521545886993,-0.021294845268130302,0.003679080866277218,0.04468748718500137,0.16264761984348297,0.05552557855844498,0.1947651207447052,-0.5800345540046692,-0.014460928738117218,-0.0004184202116448432,0.0029187165200710297,0.033795300871133804,0.05578848719596863,0.2587890028953552,0.0759335309267044,0.09714659303426743,-0.02010478638112545,-0.05562010034918785,-0.09714250266551971,-0.018334442749619484,0.05369924008846283,0.039810821413993835,-0.03564846143126488,0.09553688764572144,-0.02037811279296875,0.16783714294433594,-0.06329624354839325,0.03615332022309303,0.011002205312252045,0.04155482351779938,0.1119115874171257,-0.17849592864513397,-0.08194436877965927,-0.05279134213924408,-0.02001035213470459,-0.002952620619907975,0.05630551651120186,0.2515990138053894,0.04706844314932823,0.018888140097260475,0.03216778114438057,0.07024386525154114,-0.008933231234550476,-0.024101540446281433,0.02737506665289402,-0.04063187912106514,-0.06775432080030441,-0.049033645540475845,-0.12911292910575867,-0.047478947788476944,0.02164052613079548,0.12506024539470673,0.03186284005641937,0.013368198648095131,0.006641754414886236,0.03925437107682228,-0.05673275887966156,-0.029287608340382576,-0.04365844652056694,-0.12416243553161621,-0.17657850682735443,0.1036648154258728,0.015175777487456799,0.028336551040410995,0.06579793989658356,0.1177128329873085,0.07652479410171509,0.09760089963674545,0.0499330572783947,-0.08284236490726471,-0.09471001476049423,-0.09898141026496887,0.009789200499653816,-0.2568944990634918,0.002342499326914549,-0.0919644758105278,-0.08911314606666565,-0.041362740099430084,0.017059776932001114,-0.2588501572608948,-0.07611430436372757,0.00713058328256011,0.06467128545045853,-0.02718997187912464,0.07432520389556885,0.15061448514461517,-0.018303953111171722,0.0012494046241044998,0.09141278266906738,-0.04675888642668724,0.043022193014621735,-0.1430882066488266,0.007439304143190384,0.02841704711318016,-0.00997245218604803,0.08098211139440536,0.17465069890022278,-0.0998825803399086,-0.05035748332738876,-0.019162554293870926,-0.056177955120801926,-0.1292644441127777,-0.08938668668270111,0.11457324028015137,-0.0016772578237578273,-0.08621510118246078,-0.06433672457933426,-0.1643567979335785,-0.10961253196001053,0.2064424604177475,0.038248661905527115,-0.12671828269958496,-0.019073527306318283,0.02611689269542694,0.12267225235700607,0.30866947770118713,0.050783563405275345,0.04015288129448891,0.01647261530160904,-0.0784410610795021,0.1676463484764099,0.02746865339577198,-0.06419918686151505,0.07158461213111877,0.2371368408203125,0.022682609036564827,-0.19743119180202484,-0.2389189749956131,-0.007330854889005423,0.02850177511572838,0.0804482102394104,-0.029857268556952477,-0.1736370325088501,-0.1644735485315323,0.08552220463752747,-0.055447012186050415,-0.11168357729911804,-0.13591432571411133,0.18489502370357513,-0.05979599803686142,0.010928518138825893,-0.026572393253445625,-0.09311974793672562,0.02911200374364853,0.17675012350082397,0.3055433928966522,-0.009929553605616093,-0.11331029236316681,-0.03803730010986328,-0.09076137095689774,0.06447319686412811,-0.006985342130064964,-0.027958035469055176,-0.15216848254203796,-0.0874548852443695,-0.013110147789120674,-0.16792111098766327,-0.21973025798797607,-0.067826047539711,0.014216648414731026,-0.11349139362573624,-0.12247596681118011,-0.4225878417491913,-0.20814639329910278,-0.04671474173665047,-0.035134196281433105,-0.06747617572546005,0.06169269233942032,0.05000627040863037,0.042501505464315414,0.003909865394234657,0.02349463291466236,0.14259035885334015,0.058400899171829224,-0.005758984480053186,-0.10664057731628418,-0.05365147069096565,0.01756041869521141,0.04584405943751335,-0.048714205622673035,0.026684574782848358,0.009690817445516586,-0.09331557154655457,-0.04451478272676468,-0.18667921423912048,0.030729884281754494,0.09715486317873001,0.40233099460601807,0.009962399490177631,0.02423674799501896,0.009745113551616669,-0.13449232280254364,-0.12075669318437576,0.13979314267635345,-0.0778866857290268,0.03666074573993683,-0.06018857657909393,-0.02032720111310482,0.026457706466317177,-0.6154274940490723,-0.04361312463879585,-0.05822179093956947,-0.05500083416700363,0.282907098531723,0.07789012789726257,-0.08963267505168915,0.0915326327085495,0.0297235120087862,0.01599760726094246,-0.04523570463061333,-0.09620030224323273,0.18002398312091827,0.018556246533989906,-0.03611147403717041,-0.016521353274583817,-0.06442614644765854,-0.15771417319774628,0.14106397330760956,0.06145268678665161,-0.026343684643507004,-0.07552293688058853,-0.06046227365732193,-0.18925632536411285,0.10971185564994812,0.008098334074020386,-0.026680907234549522,-0.03419952467083931,-0.03278921917080879,-0.08328516781330109,0.3063945174217224,-0.012594539672136307,-0.019142216071486473,0.04418233409523964,0.022636277601122856,0.014721158891916275,-0.051402125507593155,-0.07301408797502518,0.009536328725516796,-0.01988959312438965,0.0031686683651059866,-0.06032121926546097,0.14829391241073608,0.025841422379016876,0.12756949663162231,0.09748843312263489,0.10429342836141586,0.13700944185256958,-0.48780420422554016,-0.004805040545761585,0.0035717228893190622,0.022312873974442482,-0.009597730822861195,0.2626499533653259,-0.4352514147758484,0.2194826304912567,-0.11262281984090805,0.11360586434602737,-0.16779156029224396,-0.05203314870595932,0.03826403245329857,-0.3802397847175598,-0.07458915561437607,0.024943392723798752,0.0033394417259842157,0.019568147137761116,-0.02881716378033161,-0.0013937841868028045,-0.010796301998198032,-0.010919217020273209,-0.009034285321831703,-0.23112758994102478,-0.036611899733543396,-0.06733040511608124,-0.00943501852452755,-0.23938435316085815,0.06631222367286682,0.056027304381132126,-0.23598672449588776,0.1422666311264038,0.21350312232971191,-0.3168409764766693,0.23917421698570251,0.27745044231414795,-0.3169543147087097,0.47773241996765137,-0.0837155133485794,-0.32751861214637756,0.107844777405262,0.3188372254371643,0.3486543595790863,0.26138126850128174,0.16462260484695435,-0.31717729568481445,0.1822124570608139,0.1831343173980713,-0.016302339732646942,0.1506548821926117,-0.394835501909256,-0.23006214201450348,0.10457205772399902,0.2914389669895172,-0.4857831299304962,-0.3164719343185425,0.13559599220752716,0.12801793217658997,0.34101513028144836,-0.023490479215979576,0.43513986468315125,-0.3658900260925293,0.13392838835716248,0.2294277399778366,0.337400883436203,0.3414515554904938,-0.054822664707899094,0.03354213386774063,0.024632664397358894,-0.08542753756046295,0.11504946649074554,0.026455605402588844,0.2643186151981354,0.08291777968406677,-0.17847108840942383,0.06113733351230621,-0.0558907575905323,0.23784297704696655,0.07135061919689178,0.29412809014320374,-0.08406759798526764,-0.29883521795272827,0.08570460230112076,0.07028357684612274,0.2039889544248581,0.15368513762950897,0.28670933842658997,0.04340677335858345,0.030455229803919792,-0.30847978591918945,0.13814710080623627,-0.035684116184711456,-0.11045916378498077,-0.32204878330230713,0.12725770473480225,0.03772746026515961,0.09945698827505112,0.06073103845119476,0.1232442781329155,0.06544435769319534,0.052260253578424454,-0.11875049024820328,-0.17695710062980652,-0.005311523098498583,-0.14424479007720947,-0.0910019800066948,0.0769280195236206,-0.1626996546983719,-0.04381084069609642,-0.044600557535886765,-0.012772038578987122,-0.045473773032426834,-0.09144306182861328,0.028125377371907234,0.2873983383178711,-0.018814267590641975,0.13869968056678772,0.06243442744016647,0.07047075778245926,-0.01814226247370243,-0.0036314239259809256,0.03208666294813156,-0.06115778908133507,-0.047293271869421005,0.12435977905988693,0.16431279480457306,-0.01827520690858364,0.0025175863411277533,0.014146882109344006,0.004390181973576546,0.11655107140541077,-0.054305318742990494,-0.07140965014696121,0.04226470738649368,0.033117495477199554,-0.08956984430551529,-0.21074271202087402,0.008195760659873486,-0.039422791451215744,0.07616614550352097,0.03576916456222534,-0.049555398523807526,0.12802398204803467,-0.01685672625899315,0.005281244870275259,-0.0558970645070076,-0.04897858947515488,0.05023270472884178,-0.05604220926761627,0.004373996518552303,0.024096062406897545,-0.021461792290210724,0.011967959813773632,0.06032780930399895,-0.007750953547656536,-0.017681961879134178,-0.04176276922225952,-0.04116072505712509,-0.09184016287326813,-0.07054453343153,0.07535769045352936,-0.03060115873813629,-0.04058653488755226,-0.009677154943346977,-0.0063187736086547375,0.028295503929257393,-0.02280164510011673,-0.006535939872264862,-0.0007800202001817524,-0.003502574050799012,0.08403579890727997,0.23664222657680511,-0.09559255838394165,0.016784535720944405,0.048963919281959534,0.02657494507730007,-0.0013592808973044157,0.16137295961380005,-0.1712222844362259,-0.06947219371795654,-0.06924872100353241,-0.04063168540596962,-0.008316044695675373,-0.08209682255983353,-0.1199263408780098,-0.0027444653678685427,0.008888809010386467,0.006158929783850908,-0.038547925651073456,-0.08694744855165482,0.23247021436691284,-0.04238734394311905,-0.05260434001684189,0.012544876895844936,0.06859537959098816,0.05793643370270729,0.13222168385982513,0.013873952440917492,0.0009101558825932443,0.025607429444789886,0.0735628604888916,0.04925020784139633,-0.04500347003340721,-0.038595765829086304,0.005710378754884005,0.08124000579118729,-0.02935030683875084,0.09219076484441757,-0.040217962116003036,-0.017361538484692574,0.04066454619169235,0.045440588146448135,-0.00905267708003521,0.09420234709978104,-0.039902638643980026,0.03292875364422798,0.04018139839172363,0.0015495013212785125,0.07785696536302567,0.0738980695605278,-0.06947406381368637,0.02708246000111103,-0.04048019275069237,-0.026361670345067978,0.048560917377471924,0.0872642993927002,-0.041833776980638504,-0.0069763027131557465,-0.031178820878267288,0.007282613310962915,0.08517015725374222,0.03767509013414383,-0.08867833018302917,-0.028714049607515335,-0.013502087444067001,-0.011595836840569973,-0.024865398183465004,0.13420148193836212,-0.004904268775135279,-0.14948490262031555,-0.1691531389951706,-0.1200987920165062,-0.07950497418642044,-0.07378841936588287,-0.2946433126926422,-0.032861411571502686,0.018835939466953278,0.01227392815053463,-0.012074577622115612,0.030917838215827942,0.15808722376823425,-0.06696312129497528,-0.07766775041818619,-0.08682242780923843,-0.08549728244543076,0.00019934259762521833,-0.27561596035957336,0.00042748908163048327,0.04687465727329254,0.029291963204741478,0.034988731145858765,0.02557450905442238,-0.10075189918279648,0.022696007043123245,0.10498127341270447,0.07713131606578827,0.08969175815582275,0.07059688121080399,0.005257034674286842,0.0007867433014325798,0.04309670627117157,0.03868730366230011,0.024216895923018456,0.07687514275312424,-0.304428368806839,-0.14061683416366577,-0.1203678622841835,-0.14581726491451263,-0.062145259231328964,0.02052677609026432,0.16232195496559143,-0.04342913255095482,-0.07226303964853287,-0.02746531367301941,-0.02948431484401226,-0.0749729573726654,-0.12348292768001556,0.007206793408840895,0.007071821950376034,0.03440186753869057,0.09979218244552612,0.17985127866268158,0.032473403960466385,-0.0062796748243272305,-0.016947465017437935,-0.03471449762582779,0.006210135295987129,0.10344032943248749,-0.25723397731781006,0.08318735659122467,0.04695747420191765,0.030627844855189323,0.1749589443206787,-0.05229322612285614,-0.04821087792515755,0.08255376666784286,0.0341089591383934,-0.035966478288173676,-0.012307407334446907,0.010491964407265186,0.20401166379451752,-0.01996346190571785,-0.02428542450070381,-0.08040405809879303,-0.24243402481079102,-0.17140015959739685,0.004260777495801449,-0.06349249929189682,-0.026438269764184952,-0.00356224924325943,0.04982079565525055,-0.27597641944885254,0.20535847544670105,0.04599553346633911,0.050531577318906784,0.06846456229686737,-0.14506298303604126,0.021947504952549934,0.02750062569975853,-0.02775109000504017,-0.03180558234453201,-0.031144704669713974,-0.1018516942858696,0.03430566564202309,-0.037354402244091034,-0.02995653823018074,0.06354513019323349,0.11734309047460556,0.11027684062719345,-0.026245150715112686,-0.0425879992544651,-0.03321174159646034,0.0014246422797441483,-0.00021030263451393694,-0.0013326384359970689,0.03656277060508728,-0.11239797621965408,-0.008325401693582535,-0.003221542341634631,-0.004864159505814314,0.05690564587712288,0.04332710802555084,-0.13889484107494354,-0.016887210309505463,-0.056195374578237534,0.00657654320821166,-0.015869015827775,0.008890445344150066,-0.01663188636302948,-0.05358269065618515,-0.041162069886922836,0.0008495807414874434,-0.08994948118925095,0.021952683106064796,0.0768614262342453,0.015443619340658188,0.03160711005330086,-0.029226141050457954,0.036319803446531296,-0.17476221919059753,0.03277384117245674,-0.003711333032697439,0.028549334034323692,0.05652198567986488,0.014779714867472649,0.03282695263624191,-0.1265338659286499,-0.054356079548597336,0.027152786031365395,0.04165922477841377,0.03325119987130165,0.06485600024461746,-0.03334368020296097,-0.02861838974058628,-0.013316958211362362,0.032666806131601334,-0.05855391174554825,0.161030575633049,-0.3385632038116455,0.021053731441497803,-0.010861258022487164,0.004216950386762619,0.03192492946982384,0.15657223761081696,-0.12542591989040375,-0.02831602469086647,0.005357278510928154,0.02882145717740059,0.03191664442420006,-0.06897176057100296,0.06265556067228317,0.033863235265016556,0.0628354623913765,0.021951736882328987,0.020998302847146988,0.06587424129247665,-0.16906464099884033,0.05434534326195717,0.01774383708834648,-0.03295242041349411,-0.00539054162800312,0.265741765499115,0.3270776569843292,-0.018775174394249916,-0.001164070563390851,0.009844356216490269,0.030192406848073006,-0.009573681280016899,0.2357870638370514,-0.049710970371961594,-0.07514882832765579,-0.014580047689378262,-0.07545242458581924,-0.03825952112674713,-0.035476066172122955,-0.048721589148044586,0.004032666329294443,-0.04401112347841263,-0.03197525814175606,0.12530378997325897,-0.077657550573349,-0.02536940388381481,-0.029345106333494186,0.014908364973962307,-0.11977966874837875,-0.17392323911190033,-0.21377916634082794,0.022021567448973656,0.021491238847374916,0.031739991158246994,-0.0055159530602395535,-0.0014211087254807353,-0.11469166725873947,-0.021475570276379585,0.028812028467655182,0.013476021587848663,-0.004273022525012493,0.08758719265460968,-0.11725221574306488,-0.016960829496383667,0.012843731790781021,-0.02398476004600525,0.0070856306701898575,-0.07431922107934952,0.28601813316345215,0.017779171466827393,0.016847746446728706,-0.011506452225148678,0.0022388710640370846,-0.009366813115775585,0.1761486530303955,0.0216173455119133,-0.03338373824954033,0.06530209630727768,0.015403222292661667,-0.04468068107962608,-0.3929905891418457,-0.03924193233251572,-0.015938803553581238,0.003354439977556467,-0.05377945303916931,0.0015104374615475535,0.08992353826761246,-0.03047286905348301,-0.0397370308637619,0.026713768020272255,-0.08733465522527695,-0.09559647738933563,-0.0096098892390728,0.01937730796635151,-0.14486369490623474,-0.19429896771907806,-0.20862434804439545,0.06050340458750725,0.2189849466085434,-0.23314817249774933,-0.009128165431320667,-0.007775971665978432,0.0035299877636134624,-0.008682209998369217,0.0010267297038808465,-0.003160115098580718,0.014167720451951027,0.007407492958009243,-0.0072276778519153595,-0.12873587012290955,-0.06964059174060822,-0.14346276223659515,0.13276688754558563,0.05814089998602867,0.11601211875677109,0.2287740409374237,0.04386070370674133,-0.2640056610107422,0.2419740855693817,0.2304849922657013,-0.16039355099201202,-0.17155982553958893,0.08584685623645782,0.12199432402849197,0.015384168364107609,0.03245862200856209,-0.003649145131930709,-0.09047030657529831,0.45410388708114624,-0.058934345841407776,0.4054023325443268,-0.116323322057724,0.26436930894851685,-0.1252974569797516,0.3922349810600281,0.07131928205490112,0.18324923515319824,-0.2591766119003296,-0.008020156994462013,0.38039276003837585,-0.40305352210998535,-0.29166093468666077,-0.30955854058265686,0.010970715433359146,0.14507213234901428,0.2863018214702606,-0.016866028308868408,-0.19816149771213531,0.20383591949939728,-0.07596305012702942,0.10056722164154053,-0.12479840219020844,0.1345348358154297,-0.1440064013004303,0.15007860958576202,-0.3105367124080658,0.2651585340499878,0.33921390771865845,0.15560705959796906,-0.08379397541284561,-0.003927371930330992,-0.1765190213918686,0.020965127274394035,0.01373944990336895,-0.11481400579214096,-0.23779349029064178,0.013332739472389221,-0.13719922304153442,-0.034238364547491074,-0.006576261017471552,-0.01166040450334549,-0.046430621296167374,-0.06762214004993439,0.24194003641605377,-0.19878382980823517,0.0009784293361008167,0.12198950350284576,-0.1587086021900177,-0.01026521809399128,0.08113424479961395,-0.1703268140554428,-0.06896268576383591,0.010162544436752796,-0.0015745422570034862,-0.035512421280145645,-0.029681270942091942,-0.08114953339099884,0.024494577199220657,-0.003583967685699463,0.01876339688897133,0.015396328642964363,-0.001812199829146266,0.13566039502620697,-0.004428166896104813,-0.00922476127743721,-0.026142729446291924,-0.020033350214362144,2.8719379770336673e-05,0.25163155794143677,0.004097523167729378,0.006590625736862421,-0.0005693467683158815,0.008604300208389759,-0.009666359052062035,0.0440923236310482,0.0239285696297884,-0.011533131822943687,0.0316365510225296,0.03784891217947006,0.005333063192665577,0.41733965277671814,0.004291420336812735,0.004164674319326878,0.017789363861083984,0.030174337327480316,-0.004216731060296297,-0.03736020624637604,-0.05788100138306618,-0.06620214134454727,-0.01914164051413536,-0.007749303709715605,0.012821455486118793,-0.21212346851825714,-0.05284053087234497,0.007665702607482672,0.007192050106823444,-0.015461516566574574,-0.02580270729959011,-0.05919506773352623,-0.061520859599113464,-0.031122848391532898,-0.05670376121997833,-0.04070841521024704,-0.09256653487682343,-0.1851329207420349,-0.0007315350230783224,-0.001204889384098351,0.010194719769060612,0.010951836593449116,0.021590638905763626,0.4428621530532837,-0.011199772357940674,-0.006620789412409067,-0.009657718241214752,-0.01672634482383728,-0.011038333177566528,-0.0370074063539505,0.00915659498423338,0.014709594659507275,0.014773039147257805,0.023937109857797623,0.020967675372958183,0.3428967297077179,0.014720724895596504,0.010238206014037132,0.032990556210279465,0.03783201053738594,0.04140438884496689,-0.22786551713943481,0.004841993562877178,-0.007927662692964077,-0.004929777700453997,0.010165437124669552,0.00043561513302847743,0.09920274466276169,-0.0605299286544323,-0.04678328335285187,-0.061353910714387894,-0.029213083907961845,-0.06942088156938553,-0.04118730127811432,-0.006289736833423376,-0.008263770490884781,-0.020425237715244293,-0.04573823884129524,-0.0022331681102514267,0.4911656379699707,-0.038320109248161316,-0.06515110284090042,-0.0659271627664566,-0.1081494614481926,-0.08265691250562668,-0.1520022302865982,0.008440177887678146,0.013389455154538155,0.027132390066981316,0.01341145671904087,-0.009690138511359692,-0.19203777611255646,-0.020140046253800392,-0.01965286210179329,-0.023197509348392487,-0.021358462050557137,-0.0038902873639017344,-0.050301678478717804,0.014265433885157108,0.0032097529619932175,-0.0053908987902104855,0.028799820691347122,0.007060074247419834,0.08621226251125336,0.031602535396814346,0.04063181206583977,0.05010151490569115,0.05990412458777428,0.0040878611616790295,-0.014825228601694107,-0.001466818735934794,0.012479706667363644,0.008311010897159576,-0.0070627303794026375,0.011764411814510822,0.5097880363464355,-0.058935001492500305,-0.032510049641132355,-0.05103613808751106,-0.08178617060184479,-0.04846567660570145,-0.44873127341270447,-0.0076874676160514355,-0.011873558163642883,-0.02833373099565506,-0.024877989664673805,-0.012391138821840286,-0.238580584526062,0.03625115007162094,-0.004196617752313614,0.028419064357876778,-0.04786869138479233,-0.020384840667247772,0.06463036686182022,-0.003405573545023799,-0.019360646605491638,-0.02024066261947155,0.002132897963747382,0.05115894973278046,-0.010126050561666489,-0.022148266434669495,0.012414494529366493,0.008928166702389717,0.031119920313358307,0.05339705944061279,-0.09208405017852783,-0.03701701760292053,-0.002310842974111438,-0.009803662076592445,0.021763736382126808,0.03632650524377823,-0.2626066207885742,-0.026076067239046097,-0.01633431948721409,-0.031073732301592827,0.013393050990998745,0.03517816588282585,0.24968771636486053,0.0096807349473238,-0.021894540637731552,0.013793141581118107,0.021299928426742554,-0.008401558734476566,0.1542765498161316,-0.0002857186773326248,0.0545378141105175,0.04650837928056717,0.02892071008682251,-0.03314223513007164,-0.0740928128361702,0.0025263826828449965,-0.014566377736628056,0.02759745717048645,0.0008431973401457071,-0.006841536145657301,-0.3879365026950836,0.0017347566317766905,-0.06952736526727676,-0.0999203622341156,-0.08780437707901001,0.05857860669493675,0.11122217774391174,-0.006610683631151915,-0.01315061654895544,-0.059932686388492584,0.008497540839016438,-0.004571434110403061,-0.1770886927843094,0.013903454877436161,0.0238382238894701,0.06585431843996048,0.06914002448320389,0.052631936967372894,-0.055872466415166855,0.0011813065502792597,0.002610830357298255,0.04983283579349518,0.010959642939269543,0.07056102156639099,0.06386012583971024,-0.02302486076951027,-8.794585301075131e-05,-0.06296242028474808,-0.012889664620161057,-0.031098905950784683,-0.043878182768821716,-0.004828410688787699,-0.021832427009940147,-0.016188550740480423,-0.007536934223026037,0.04235062748193741,0.17399819195270538,0.045819930732250214,0.007458894979208708,0.03262728080153465,-0.15216472744941711,-0.07393726706504822,-0.0037982871290296316,-0.07032551616430283,0.021327437832951546,-1.795124808268156e-05,0.08147253841161728,-0.028079550713300705,0.13631492853164673,0.006023747846484184,0.04089585319161415,0.021844709292054176,-0.12991708517074585,-0.03672335296869278,0.18103598058223724,-0.09884407371282578,-0.032055534422397614,-0.045682236552238464,-0.11897212266921997,0.024476734921336174,-0.2328205555677414,-0.11130625009536743,0.00015093058755155653,-0.06111450493335724,-0.025783365592360497,-0.015799505636096,-0.1865663081407547,0.020474934950470924,0.0032680355943739414,0.07287789136171341,0.10328245908021927,0.08176451921463013,0.20444458723068237,-0.04060978814959526,-0.02483649179339409,0.02502898871898651,-0.042594023048877716,0.05760066956281662,0.051534976810216904,0.0654350072145462,-0.056564729660749435,-0.026946263387799263,0.017973767593503,0.004469650331884623,0.2239256501197815,-0.06665998697280884,0.03548182174563408,-0.02311568520963192,-0.06031371280550957,-0.06144176423549652,0.002445927355438471,0.03894820064306259,0.009167930111289024,-0.026173653081059456,-0.10296548157930374,-0.09888144582509995,-0.058874133974313736,-0.06079045683145523,-0.0040762219578027725,-0.028651274740695953,-0.08493586629629135,0.022686127573251724,0.09513888508081436,-0.028079750016331673,-0.049509160220623016,-0.15526032447814941,-0.09894192218780518,-0.13426068425178528,0.024239564314484596,-0.013848455622792244,-0.015327137894928455,-0.08957558125257492,-0.06054801866412163,-0.06496842205524445,0.028424683958292007,-0.08975101262331009,0.023734861984848976,0.06959591805934906,0.024225562810897827,0.12935969233512878,0.028879273682832718,-0.04039723053574562,-0.03251063451170921,-0.07643721997737885,-0.03802768513560295,-0.057233765721321106,-0.02392873913049698,-0.024543331936001778,0.00032535174977965653,0.053741443902254105,0.0717841163277626,0.0496971532702446,-0.03333677724003792,0.09853934496641159,0.02237025275826454,-0.1563459187746048,0.0538036935031414,-0.0004294036189094186,-0.04465799033641815,-0.043048352003097534,-0.03950298950076103,0.09395784139633179,-0.09067104756832123,-0.12381423264741898,0.07041292637586594,-0.022549986839294434,-0.003256698837503791,-0.0572492890059948,-0.024494165554642677,-0.013137612491846085,-0.25125986337661743,0.019165247678756714,0.023773236200213432,0.0018637852044776082,0.02832634747028351,0.026471661403775215,-0.09272617101669312,0.005031728185713291,0.01382666639983654,-0.008071773685514927,-0.0062539526261389256,-0.013597209937870502,-0.31408563256263733,-0.009249398484826088,-0.003069905564188957,0.03181067481637001,0.01609405316412449,-0.01816575601696968,0.3100566864013672,0.00793412234634161,0.022497717291116714,0.02927660383284092,0.045938849449157715,0.01736524887382984,-0.06488484889268875,0.013250578194856644,-0.007960225455462933,-0.0032915433403104544,-0.0037577529437839985,0.04761423543095589,-0.18623796105384827,-0.0064956024289131165,0.013294028118252754,-0.04545632377266884,-0.05359182506799698,-0.006899257190525532,-0.017461184412240982,-0.04083885997533798,0.01707562245428562,-0.011370014399290085,0.023110559210181236,-0.0839163064956665,0.14655223488807678,-0.21189694106578827,-0.39921432733535767,-0.43100401759147644,-0.007162446156144142,-0.007601717486977577,0.06181246042251587,-0.01580541767179966,-0.20344698429107666,0.011525064706802368,0.011356286704540253,-0.012021750211715698,0.00132477015722543,0.016790157184004784,-0.0033258958719670773,