{
    "in_shape": [
        null,
        null,
        1
    ],
    "layers": [
        {
            "type": "lstm",
            "activation": "",
            "shape": [
                null,
                null,
                20
            ],
            "weights": [
                [
                    [
                        -0.03314435854554176,
                        -0.024654727429151535,
                        0.015283980406820774,
                        0.05105789750814438,
                        -0.015541177242994308,
                        0.04766720533370972,
                        -0.05533831939101219,
                        -0.11363356560468674,
                        -0.04960111901164055,
                        0.062330856919288635,
                        -0.011937686242163181,
                        -0.0295821875333786,
                        0.09635651111602783,
                        0.009374484419822693,
                        -0.037544384598731995,
                        -0.07408970594406128,
                        0.0921631008386612,
                        -0.041674211621284485,
                        0.0029633305966854095,
                        -0.0051726289093494415,
                        -0.03570209816098213,
                        -0.007592250593006611,
                        0.03469269722700119,
                        0.019308138638734818,
                        0.054376281797885895,
                        -0.00881250761449337,
                        -0.04685864970088005,
                        0.0007921872311271727,
                        -0.09159627556800842,
                        -0.0007857993477955461,
                        0.035109858959913254,
                        -0.013324141502380371,
                        -0.0028763737063854933,
                        0.16128967702388763,
                        0.05138419196009636,
                        -0.14374959468841553,
                        0.13614392280578613,
                        -0.052283450961112976,
                        0.006064421031624079,
                        0.014920216053724289,
                        -0.10763853043317795,
                        -0.022014329209923744,
                        -0.07046270370483398,
                        0.23211099207401276,
                        0.13658416271209717,
                        0.0417499877512455,
                        -0.153026282787323,
                        0.04259706661105156,
                        0.34351444244384766,
                        -0.06159612536430359,
                        0.0731256976723671,
                        -0.183937668800354,
                        0.523283064365387,
                        -0.9908437132835388,
                        -0.0536249503493309,
                        0.16467270255088806,
                        0.40870100259780884,
                        0.012368409894406796,
                        0.025854595005512238,
                        -0.1244041919708252,
                        -0.048972371965646744,
                        0.03492800146341324,
                        0.001004206482321024,
                        0.03701945021748543,
                        -0.02487366273999214,
                        -0.022440729662775993,
                        -0.04436376690864563,
                        -0.031823333352804184,
                        -0.03350779041647911,
                        -0.07033373415470123,
                        0.029735829681158066,
                        -0.028122806921601295,
                        0.012406723573803902,
                        0.013723590411245823,
                        0.024483351036906242,
                        -0.07221299409866333,
                        0.1012297049164772,
                        -0.047052718698978424,
                        0.007743444759398699,
                        -0.00224110996350646
                    ]
                ],
                [
                    [
                        0.010503414086997509,
                        0.005169321317225695,
                        0.010537249967455864,
                        0.02047889307141304,
                        0.04861776530742645,
                        -0.004893552977591753,
                        -0.019683176651597023,
                        0.028512049466371536,
                        -0.01751408725976944,
                        0.048634305596351624,
                        0.004012364894151688,
                        0.044204261153936386,
                        0.04506245255470276,
                        0.03570674732327461,
                        -0.12303053587675095,
                        -0.008388721384108067,
                        -0.08123230189085007,
                        -0.03154768794775009,
                        0.04634025692939758,
                        0.012411687523126602,
                        -0.039592236280441284,
                        -0.024699384346604347,
                        0.00126743339933455,
                        -0.008072422817349434,
                        0.0831368938088417,
                        0.0681164339184761,
                        -0.018184280022978783,
                        0.06585127115249634,
                        -0.027969928458333015,
                        -0.042181096971035004,
                        0.02109726518392563,
                        0.016874678432941437,
                        0.034509990364313126,
                        -0.00341657642275095,
                        -0.046880949288606644,
                        -0.015363341197371483,
                        -0.011698816902935505,
                        -0.053359225392341614,
                        0.1305648535490036,
                        -0.016458960250020027,
                        0.076053187251091,
                        -0.47009432315826416,
                        -0.15716807544231415,
                        0.6252599954605103,
                        -0.029415858909487724,
                        -0.33754950761795044,
                        0.4733794331550598,
                        0.0031577646732330322,
                        -0.2324746996164322,
                        0.02216912992298603,
                        -0.004114615265280008,
                        0.032320693135261536,
                        0.06636156141757965,
                        -0.18902938067913055,
                        0.10807003080844879,
                        0.32911258935928345,
                        0.3688198924064636,
                        0.00071593007305637,
                        0.11445567011833191,
                        0.4126061201095581,
                        -0.015374798327684402,
                        -0.02020881325006485,
                        0.05617091432213783,
                        0.01643770933151245,
                        0.05951745808124542,
                        -0.05098435655236244,
                        -0.023880887776613235,
                        0.02680628001689911,
                        0.00865192711353302,
                        0.022922972217202187,
                        0.029714006930589676,
                        0.05623384937644005,
                        0.0341319665312767,
                        0.037284061312675476,
                        -0.05220557004213333,
                        -0.004976289812475443,
                        -0.0428173802793026,
                        -0.01648537814617157,
                        0.07431799173355103,
                        0.012903813272714615
                    ],
                    [
                        0.046538736671209335,
                        0.07913986593484879,
                        0.0017732910346239805,
                        -0.006111808121204376,
                        0.009233502671122551,
                        -0.017868636175990105,
                        0.06177878379821777,
                        -0.11124789714813232,
                        0.0009181490750052035,
                        -0.017190180718898773,
                        -0.059969522058963776,
                        0.00844599213451147,
                        -0.004327642731368542,
                        -0.14431118965148926,
                        -0.010052397847175598,
                        0.03018457442522049,
                        -0.028005430474877357,
                        0.02177954651415348,
                        -0.046848978847265244,
                        -0.033595725893974304,
                        0.050445929169654846,
                        -0.03744971379637718,
                        0.020660240203142166,
                        -0.012401354499161243,
                        -0.09518048167228699,
                        0.0880545973777771,
                        0.043246980756521225,
                        0.01480065006762743,
                        0.007695841137319803,
                        0.07041916251182556,
                        -0.1008220836520195,
                        0.17080377042293549,
                        0.004078833386301994,
                        -0.017813295125961304,
                        0.17579539120197296,
                        0.10107138007879257,
                        0.05618635192513466,
                        -0.02369384467601776,
                        -0.02930043824017048,
                        -0.003420458873733878,
                        0.17533354461193085,
                        0.7938966751098633,
                        -0.13980776071548462,
                        -0.021565299481153488,
                        0.021844979375600815,
                        0.2872498631477356,
                        0.15666380524635315,
                        0.28507333993911743,
                        -0.04401956871151924,
                        -0.04140191897749901,
                        0.06418175995349884,
                        -0.15221206843852997,
                        0.033604588359594345,
                        0.027745524421334267,
                        0.03611418977379799,
                        0.04557548090815544,
                        0.010755477473139763,
                        0.03858255594968796,
                        0.14621217548847198,
                        0.043112341314554214,
                        0.010781950317323208,
                        0.13971540331840515,
                        -0.035854145884513855,
                        -0.02275676280260086,
                        0.050342731177806854,
                        -0.07681231200695038,
                        0.04586661979556084,
                        0.026536062359809875,
                        0.052588529884815216,
                        0.10089311748743057,
                        0.09978975355625153,
                        -0.024349570274353027,
                        -0.01232985034584999,
                        -0.11162864416837692,
                        0.1351788192987442,
                        0.03411398455500603,
                        0.04421218857169151,
                        0.02863837406039238,
                        -0.03529417887330055,
                        -0.0316862054169178
                    ],
                    [
                        -0.07905154675245285,
                        -0.14352558553218842,
                        -0.03616802766919136,
                        -0.16411912441253662,
                        -0.16068808734416962,
                        -0.08264394849538803,
                        -0.10551262646913528,
                        0.30119574069976807,
                        -0.04594063013792038,
                        0.17064400017261505,
                        -0.07314714789390564,
                        -0.023833271116018295,
                        -0.08098310232162476,
                        -0.11767221242189407,
                        0.2081536054611206,
                        -0.04503702372312546,
                        -0.0625237450003624,
                        -0.05504777655005455,
                        -0.09437360614538193,
                        -0.1514246165752411,
                        -0.0414850078523159,
                        0.010477567091584206,
                        -0.025420598685741425,
                        -0.018585100769996643,
                        -0.01661374419927597,
                        -0.0682336613535881,
                        0.04522979259490967,
                        -0.3859533965587616,
                        -0.05389591306447983,
                        -0.24866946041584015,
                        -0.13819001615047455,
                        -0.0013603306142613292,
                        -0.018285280093550682,
                        0.0014416218036785722,
                        -0.28512629866600037,
                        0.00883107353001833,
                        -0.09775108098983765,
                        -0.05822139233350754,
                        -0.12041965126991272,
                        0.06586357951164246,
                        0.024456169456243515,
                        0.20989450812339783,
                        0.08221974968910217,
                        -0.23232688009738922,
                        0.12128996104001999,
                        0.19963525235652924,
                        -0.09720637649297714,
                        0.12651050090789795,
                        -0.031946003437042236,
                        0.13550913333892822,
                        0.18269020318984985,
                        0.04411226138472557,
                        0.11474087089300156,
                        -0.011445033363997936,
                        -0.14620262384414673,
                        0.022936606779694557,
                        -0.11797773838043213,
                        0.07908663898706436,
                        -0.0316283293068409,
                        0.00904790498316288,
                        -0.09785640239715576,
                        0.01891087368130684,
                        -0.03717910498380661,
                        -0.18145054578781128,
                        -0.14835675060749054,
                        -0.1482863575220108,
                        -0.11246993392705917,
                        -0.04492681473493576,
                        -0.07937631756067276,
                        -0.09278097003698349,
                        -0.11774778366088867,
                        -0.04190996289253235,
                        -0.0940965935587883,
                        -0.12602409720420837,
                        0.018986757844686508,
                        -0.04871896654367447,
                        -0.09346596896648407,
                        -0.09658873826265335,
                        -0.14048512279987335,
                        -0.15900227427482605
                    ],
                    [
                        0.09568403661251068,
                        0.009394388645887375,
                        -0.026227816939353943,
                        0.003546222113072872,
                        -0.02289857156574726,
                        -0.07794835418462753,
                        0.005655425600707531,
                        -0.014721927233040333,
                        0.021869253367185593,
                        -0.08391663432121277,
                        -0.005752772558480501,
                        -0.06775982677936554,
                        0.003376409877091646,
                        0.00037438064464367926,
                        0.029284436255693436,
                        0.013900614343583584,
                        -0.04769556224346161,
                        0.006516755558550358,
                        0.04516896978020668,
                        -0.0009462221059948206,
                        -0.052738938480615616,
                        -0.02596801333129406,
                        -0.04892030730843544,
                        -0.06672030687332153,
                        -0.06816020607948303,
                        0.02555491216480732,
                        -0.0013036244781687856,
                        -0.02265799045562744,
                        0.010832314379513264,
                        -0.11356387287378311,
                        -0.016587158665060997,
                        -0.03867504000663757,
                        0.009850452654063702,
                        0.035038210451602936,
                        0.047369327396154404,
                        0.015266453847289085,
                        -0.011982740834355354,
                        -0.021554280072450638,
                        0.018972381949424744,
                        -0.0046109389513731,
                        -0.7322409152984619,
                        0.025021744892001152,
                        0.14738471806049347,
                        0.30244243144989014,
                        -1.1887860298156738,
                        -0.380857914686203,
                        0.011172941885888577,
                        -0.25223249197006226,
                        -0.3232440650463104,
                        0.004445594735443592,
                        -0.11985784024000168,
                        -0.39628273248672485,
                        0.4196006655693054,
                        -0.16300004720687866,
                        0.376309335231781,
                        0.08833052217960358,
                        -0.5435917973518372,
                        0.32183781266212463,
                        -0.1502961665391922,
                        0.7109611630439758,
                        0.04360033944249153,
                        0.01597573421895504,
                        -0.042401619255542755,
                        0.01126973144710064,
                        -0.010589893907308578,
                        0.026533186435699463,
                        0.0021123290061950684,
                        -0.020737985149025917,
                        0.014837373048067093,
                        -0.05010661482810974,
                        0.022102825343608856,
                        -0.026518533006310463,
                        0.019320746883749962,
                        -0.018276313319802284,
                        -0.012829179875552654,
                        0.016893798485398293,
                        -0.048790063709020615,
                        -0.0027242235373705626,
                        -0.0267360620200634,
                        -0.0004201545671094209
                    ],
                    [
                        0.017165374010801315,
                        -0.021949389949440956,
                        -0.016774442046880722,
                        -0.05082454904913902,
                        -0.046009644865989685,
                        -0.08227361738681793,
                        0.044460274279117584,
                        0.11620006710290909,
                        -0.05038422346115112,
                        0.03353941813111305,
                        -0.034630563110113144,
                        -0.024474987760186195,
                        -0.029178043827414513,
                        -0.09766410291194916,
                        -0.13786739110946655,
                        0.04208362475037575,
                        0.05770895257592201,
                        0.06947239488363266,
                        0.004775456618517637,
                        -0.016360051929950714,
                        -0.008296922780573368,
                        0.14209330081939697,
                        0.04709026589989662,
                        0.10455380380153656,
                        -0.19799970090389252,
                        0.5119569301605225,
                        0.07297766953706741,
                        -0.17272095382213593,
                        0.09978120028972626,
                        -0.04075726121664047,
                        -0.10115533322095871,
                        0.16471995413303375,
                        0.04197969287633896,
                        -0.12860311567783356,
                        0.02444606088101864,
                        0.021112561225891113,
                        0.02705315686762333,
                        0.11618103832006454,
                        -0.4093247652053833,
                        0.039773400872945786,
                        -0.2923316955566406,
                        -0.11071278899908066,
                        0.013909529894590378,
                        0.20158107578754425,
                        0.7286846041679382,
                        -0.672042191028595,
                        0.4859607517719269,
                        0.07601934671401978,
                        0.03514905273914337,
                        0.11003270745277405,
                        0.2574544847011566,
                        0.2787645757198334,
                        0.029877033084630966,
                        -0.07281739264726639,
                        0.01603364385664463,
                        0.3412829041481018,
                        0.1852995902299881,
                        -0.48964473605155945,
                        -0.3302357792854309,
                        0.41149911284446716,
                        -0.03101956658065319,
                        -0.1439182311296463,
                        0.03394315019249916,
                        -0.07358302175998688,
                        -0.021890342235565186,
                        -0.030983293429017067,
                        0.046297796070575714,
                        -0.055332306772470474,
                        -0.004688712768256664,
                        0.13228419423103333,
                        -0.19125580787658691,
                        -0.0013232207857072353,
                        -0.02141198143362999,
                        -0.1207655668258667,
                        0.024017293006181717,
                        0.024075914174318314,
                        -0.013255566358566284,
                        0.06847481429576874,
                        -0.04459972679615021,
                        -0.013908923603594303
                    ],
                    [
                        -0.15519002079963684,
                        -0.44379672408103943,
                        -0.0973905399441719,
                        -0.25487807393074036,
                        -0.3049567937850952,
                        -0.19605791568756104,
                        -0.18098045885562897,
                        0.587673008441925,
                        -0.14176121354103088,
                        0.349999338388443,
                        -0.12914343178272247,
                        -0.07008841633796692,
                        -0.1238592341542244,
                        -0.17857007682323456,
                        0.2752094864845276,
                        -0.08485116064548492,
                        -0.11759114265441895,
                        -0.08709922432899475,
                        -0.2027033120393753,
                        -0.23574800789356232,
                        -0.12682418525218964,
                        -0.4426687955856323,
                        -0.11646471172571182,
                        -0.10726901888847351,
                        -0.07114380598068237,
                        -0.25524306297302246,
                        0.056682929396629333,
                        -0.7283709049224854,
                        -0.1957014948129654,
                        -0.3231182098388672,
                        -0.11350321769714355,
                        -0.09727933257818222,
                        -0.03660997748374939,
                        -0.03874220326542854,
                        -0.5013774633407593,
                        -0.016617154702544212,
                        -0.2543605864048004,
                        -0.09703250974416733,
                        -0.10883890092372894,
                        0.09690335392951965,
                        -0.14492277801036835,
                        -0.6634594202041626,
                        0.10565028339624405,
                        0.14807918667793274,
                        0.22447708249092102,
                        0.03516745939850807,
                        0.3881389796733856,
                        0.06317538022994995,
                        -0.04375060275197029,
                        0.09405116736888885,
                        0.293977826833725,
                        0.22621074318885803,
                        -0.108463354408741,
                        -0.14665032923221588,
                        -0.18382520973682404,
                        0.26484546065330505,
                        0.11296290159225464,
                        -0.07685275375843048,
                        -0.07906792312860489,
                        0.17290811240673065,
                        -0.20179490745067596,
                        -0.5019374489784241,
                        -0.07212038338184357,
                        -0.28721389174461365,
                        -0.292684406042099,
                        -0.4272690713405609,
                        -0.20267078280448914,
                        -0.13477233052253723,
                        -0.1814258098602295,
                        -0.17574149370193481,
                        -0.3510194718837738,
                        -0.09058577567338943,
                        -0.14772188663482666,
                        -0.1815224587917328,
                        -0.06413471698760986,
                        -0.08914575725793839,
                        -0.17449459433555603,
                        -0.13190047442913055,
                        -0.25418657064437866,
                        -0.24812310934066772
                    ],
                    [
                        0.05939509719610214,
                        0.010970409028232098,
                        -0.005428055766969919,
                        0.013104886747896671,
                        0.06732465326786041,
                        -0.03952033072710037,
                        0.011300601065158844,
                        -0.004764561075717211,
                        0.0017750923288986087,
                        0.03747007995843887,
                        0.002505861921235919,
                        -0.024258948862552643,
                        -0.03642147034406662,
                        -0.01918826997280121,
                        -0.2528499364852905,
                        -0.005711976904422045,
                        0.04345703125,
                        0.016044098883867264,
                        0.03440476953983307,
                        0.00695722084492445,
                        0.08487283438444138,
                        -0.01116868108510971,
                        -0.004993421491235495,
                        0.07436136156320572,
                        -0.002304528374224901,
                        0.09159891307353973,
                        0.03982093557715416,
                        0.045273926109075546,
                        0.017335880547761917,
                        0.03484838828444481,
                        0.019515717402100563,
                        0.01780308410525322,
                        0.01594916731119156,
                        -0.06947125494480133,
                        0.04534612223505974,
                        0.027598971500992775,
                        0.019088437780737877,
                        0.03687246888875961,
                        -0.06468794494867325,
                        -0.004666302818804979,
                        -0.289319783449173,
                        -0.5245795845985413,
                        0.1136934831738472,
                        0.08267727494239807,
                        -0.11228679120540619,
                        -0.5095199346542358,
                        -0.2864786684513092,
                        -0.13990268111228943,
                        0.13544665277004242,
                        -0.02465798519551754,
                        -0.05113852024078369,
                        0.08211477100849152,
                        -0.0817013755440712,
                        -0.1721624732017517,
                        -0.008342541754245758,
                        -0.11885524541139603,
                        -0.22523921728134155,
                        -0.00530853820964694,
                        -0.5719720721244812,
                        -0.4392927587032318,
                        0.05016140267252922,
                        -0.11115629225969315,
                        -0.004279363434761763,
                        0.015330050140619278,
                        0.05050651729106903,
                        0.04235914722084999,
                        0.014039257541298866,
                        0.026084549725055695,
                        0.012713950127363205,
                        0.07556665688753128,
                        -0.030532272532582283,
                        -0.0019561261869966984,
                        -0.01936468482017517,
                        -0.032423850148916245,
                        0.010198060423135757,
                        0.0017436409834772348,
                        0.01912909559905529,
                        0.04942580685019493,
                        -0.0067891329526901245,
                        0.004269404336810112
                    ],
                    [
                        0.02810937725007534,
                        -0.015307227149605751,
                        -0.00013517655315808952,
                        -0.03746681660413742,
                        0.025509601458907127,
                        -0.026888059452176094,
                        -0.0186824481934309,
                        0.049164559692144394,
                        0.03439309075474739,
                        0.003930484876036644,
                        -0.013734610751271248,
                        -0.018349066376686096,
                        -0.023367997258901596,
                        -0.05786753445863724,
                        0.03492620587348938,
                        0.004022129811346531,
                        0.012701265513896942,
                        0.022770022973418236,
                        -0.016772909089922905,
                        -0.01987244188785553,
                        0.0410064198076725,
                        0.03954328969120979,
                        -0.004944566637277603,
                        -0.02094011940062046,
                        0.16952292621135712,
                        -0.052917078137397766,
                        0.026850182563066483,
                        -0.09815634042024612,
                        -0.013350862078368664,
                        -0.21468178927898407,
                        -0.01766168512403965,
                        -0.042417872697114944,
                        -0.024852702394127846,
                        -0.08128293603658676,
                        0.02900344505906105,
                        0.04682128503918648,
                        -0.05586036294698715,
                        0.04361266642808914,
                        0.003608517348766327,
                        0.02161463536322117,
                        -0.0998750776052475,
                        -0.03670154884457588,
                        -0.08458558470010757,
                        -0.02895975485444069,
                        -0.3005845248699188,
                        0.059875477105379105,
                        0.0667063370347023,
                        0.37712106108665466,
                        0.2231573611497879,
                        -0.1817798614501953,
                        -0.09580309689044952,
                        -0.1678207963705063,
                        0.12071869522333145,
                        -0.22214141488075256,
                        0.046409253031015396,
                        -0.06694361567497253,
                        0.18714438378810883,
                        0.14012287557125092,
                        0.025281066074967384,
                        -0.08875639736652374,
                        0.01846090704202652,
                        -0.08062903583049774,
                        0.0031840037554502487,
                        -0.039464108645915985,
                        0.03857175260782242,
                        -0.016508575528860092,
                        -0.020282423123717308,
                        -0.07222268730401993,
                        0.02100026234984398,
                        0.02702757902443409,
                        -0.04364539310336113,
                        -0.019166434183716774,
                        -0.025257688015699387,
                        -0.05635012686252594,
                        0.004166451282799244,
                        0.004492573440074921,
                        0.013372370041906834,
                        0.04177083075046539,
                        -0.03915700688958168,
                        -0.02183709479868412
                    ],
                    [
                        -0.028315281495451927,
                        -0.022404296323657036,
                        0.005481129977852106,
                        -0.0468260832130909,
                        -0.03523191064596176,
                        -0.0027384816203266382,
                        -0.051806773990392685,
                        -0.02033960446715355,
                        -0.05890744552016258,
                        -0.1231941506266594,
                        -0.007021007128059864,
                        -0.042978353798389435,
                        0.005080197937786579,
                        0.029252467676997185,
                        0.02209288254380226,
                        -0.0325545072555542,
                        0.04689323529601097,
                        -0.00797654315829277,
                        -0.030399590730667114,
                        -0.015924762934446335,
                        0.018249928951263428,
                        0.10732503235340118,
                        0.02299097366631031,
                        0.05682381987571716,
                        0.10710609704256058,
                        0.001796490396372974,
                        -0.03966827318072319,
                        -0.11758770793676376,
                        -0.08901847898960114,
                        -0.19276322424411774,
                        0.09334321320056915,
                        -0.05040174350142479,
                        0.012095227837562561,
                        0.03520559147000313,
                        -0.13129666447639465,
                        -0.06506641954183578,
                        0.05888272449374199,
                        0.023379694670438766,
                        0.046880092471838,
                        0.014455521479249,
                        0.27180197834968567,
                        0.5146002173423767,
                        -0.2409369796514511,
                        0.17201025784015656,
                        -0.2148643583059311,
                        -0.011216482147574425,
                        -0.0935479924082756,
                        -0.016274819150567055,
                        0.23730607330799103,
                        -0.001937595196068287,
                        -0.29770010709762573,
                        -0.09947323799133301,
                        -0.4353450834751129,
                        -0.018568383529782295,
                        0.019226955249905586,
                        0.04074684903025627,
                        0.2584858238697052,
                        -0.1841268390417099,
                        0.0019985970575362444,
                        0.07141686975955963,
                        -0.022295186296105385,
                        0.027754338458180428,
                        0.015790019184350967,
                        -0.03801838308572769,
                        -0.04015399143099785,
                        0.008775478228926659,
                        -0.05126069113612175,
                        -0.05234793201088905,
                        -0.06285366415977478,
                        -0.09681864827871323,
                        -0.03203391656279564,
                        -0.03785097599029541,
                        0.013035024516284466,
                        0.02388741634786129,
                        -0.09145642071962357,
                        -0.03845373913645744,
                        0.028065605089068413,
                        0.005134548060595989,
                        -0.06744913756847382,
                        -0.015606873668730259
                    ],
                    [
                        0.08800157159566879,
                        0.13430313766002655,
                        0.058960337191820145,
                        0.1243293359875679,
                        0.09608176350593567,
                        0.10628589242696762,
                        0.11971795558929443,
                        -0.4016672968864441,
                        0.03810442239046097,
                        -0.09841278940439224,
                        0.09177608788013458,
                        0.0213287603110075,
                        0.024961082264780998,
                        0.031659964472055435,
                        -0.20076386630535126,
                        0.08549457043409348,
                        0.021922152489423752,
                        0.052598148584365845,
                        0.07863134890794754,
                        0.14085693657398224,
                        0.036937955766916275,
                        -0.09344738721847534,
                        0.07162341475486755,
                        0.025196826085448265,
                        -0.09213569015264511,
                        0.07041825354099274,
                        -0.017969494685530663,
                        0.2966768443584442,
                        0.09687093645334244,
                        0.3715417683124542,
                        0.1799205094575882,
                        0.046119559556245804,
                        0.019633034244179726,
                        -0.05898435041308403,
                        0.3597683608531952,
                        0.0745464637875557,
                        0.014944963157176971,
                        0.05425484478473663,
                        0.028373226523399353,
                        -0.05322634056210518,
                        -0.1753639280796051,
                        0.03136445954442024,
                        -0.1317119151353836,
                        -0.4254333972930908,
                        0.15098853409290314,
                        0.017899982631206512,
                        0.028555426746606827,
                        -0.05580711364746094,
                        0.3826710283756256,
                        0.27795374393463135,
                        -0.234574094414711,
                        -0.07094936072826385,
                        0.16637767851352692,
                        -0.23912939429283142,
                        -0.1236448809504509,
                        -0.30305981636047363,
                        0.35507145524024963,
                        -0.05679003894329071,
                        -0.1178930252790451,
                        -0.11517496407032013,
                        0.10144659876823425,
                        -0.06016118824481964,
                        0.04843046888709068,
                        0.13856598734855652,
                        0.1124703660607338,
                        0.14281511306762695,
                        0.12662827968597412,
                        0.1194004938006401,
                        0.06920187175273895,
                        0.21107548475265503,
                        0.13212358951568604,
                        0.0425470732152462,
                        0.03335986286401749,
                        0.03588331118226051,
                        0.019216014072299004,
                        0.08800395578145981,
                        0.062362249940633774,
                        0.06815870851278305,
                        0.10717914998531342,
                        0.14797501266002655
                    ],
                    [
                        -0.15509647130966187,
                        -0.2772212624549866,
                        -0.10128626227378845,
                        -0.32447588443756104,
                        -0.30472588539123535,
                        -0.19518336653709412,
                        -0.21196897327899933,
                        0.49223676323890686,
                        -0.07772071659564972,
                        0.20771625638008118,
                        -0.15387365221977234,
                        -0.06823055446147919,
                        -0.141241192817688,
                        -0.2184261679649353,
                        0.2575312554836273,
                        -0.11187548190355301,
                        -0.08455096185207367,
                        -0.12596745789051056,
                        -0.18094465136528015,
                        -0.2979550361633301,
                        -0.021293988451361656,
                        0.21230009198188782,
                        -0.0936407595872879,
                        0.020918074995279312,
                        -0.16090494394302368,
                        0.09304137527942657,
                        0.0838439092040062,
                        -0.7642768025398254,
                        -0.11934422701597214,
                        -0.6184654235839844,
                        -0.25488200783729553,
                        -0.017428047955036163,
                        -0.01636696793138981,
                        -0.006772941444069147,
                        -0.4405578076839447,
                        -0.012718819081783295,
                        -0.13819926977157593,
                        -0.10061942785978317,
                        -0.22844867408275604,
                        0.12511326372623444,
                        -0.16015607118606567,
                        0.31235745549201965,
                        0.19944334030151367,
                        0.06634991616010666,
                        0.15538954734802246,
                        -0.24744407832622528,
                        -0.003351089544594288,
                        -0.1324475258588791,
                        0.3591855764389038,
                        -0.04725966975092888,
                        0.2949155867099762,
                        0.29232028126716614,
                        -0.10946813225746155,
                        0.0040436130948364735,
                        -0.17819131910800934,
                        -0.11980294436216354,
                        -0.10542228072881699,
                        0.08648078143596649,
                        -0.43851783871650696,
                        -0.054372962564229965,
                        -0.18133433163166046,
                        0.06728825718164444,
                        -0.08390427380800247,
                        -0.3505430221557617,
                        -0.3072783946990967,
                        -0.17582617700099945,
                        -0.22424881160259247,
                        -0.1319904774427414,
                        -0.1616298109292984,
                        -0.11200787872076035,
                        -0.26672330498695374,
                        -0.09320619702339172,
                        -0.1635948121547699,
                        -0.23694580793380737,
                        0.007289611268788576,
                        -0.11692720651626587,
                        -0.1518068015575409,
                        -0.14332999289035797,
                        -0.30821147561073303,
                        -0.31154561042785645
                    ],
                    [
                        0.019561631605029106,
                        0.0015254997415468097,
                        0.002305454108864069,
                        0.02219647727906704,
                        -0.005175526719540358,
                        -0.0028113096486777067,
                        0.023343069478869438,
                        -0.011762899346649647,
                        0.051161475479602814,
                        0.028369253501296043,
                        0.038469623774290085,
                        0.03017466515302658,
                        0.02623012289404869,
                        0.021298788487911224,
                        0.059119608253240585,
                        0.04554714262485504,
                        0.0698292925953865,
                        0.025936409831047058,
                        0.035670749843120575,
                        0.016155816614627838,
                        -0.01551276259124279,
                        -0.016276264563202858,
                        0.005919928662478924,
                        0.002064530970528722,
                        -0.030755363404750824,
                        0.10234476625919342,
                        0.002214437583461404,
                        0.05170923098921776,
                        0.03576289862394333,
                        0.10873942822217941,
                        0.06695718318223953,
                        0.06011776253581047,
                        -0.012715641409158707,
                        -0.037723440676927567,
                        0.04376250505447388,
                        0.028916610404849052,
                        0.01288001611828804,
                        0.005194161087274551,
                        -0.142142191529274,
                        -0.004830387886613607,
                        -0.11353675276041031,
                        0.29984113574028015,
                        0.12953752279281616,
                        0.4116464853286743,
                        -0.016574537381529808,
                        -0.2215610146522522,
                        -0.12501922249794006,
                        0.13628831505775452,
                        0.03511892259120941,
                        0.056097183376550674,
                        -0.0849178209900856,
                        0.07456210255622864,
                        0.12728869915008545,
                        -0.17565014958381653,
                        0.0460674948990345,
                        -0.1475965529680252,
                        -0.12928180396556854,
                        -0.09942299872636795,
                        -0.3148599863052368,
                        -0.01440655067563057,
                        0.017081575468182564,
                        -0.0033028542529791594,
                        0.0012220075586810708,
                        0.023771394044160843,
                        0.0022414131090044975,
                        0.08883113414049149,
                        0.027219239622354507,
                        0.031308360397815704,
                        0.011375403963029385,
                        0.08317818492650986,
                        0.056235648691654205,
                        0.03899049013853073,
                        0.021844157949090004,
                        -0.001783086801879108,
                        0.00975363701581955,
                        0.03898113593459129,
                        0.021580033004283905,
                        0.016640447080135345,
                        -0.015922870486974716,
                        0.01602332852780819
                    ],
                    [
                        0.02308449149131775,
                        0.014066928066313267,
                        0.00031079509062692523,
                        -0.02084413915872574,
                        0.03149666637182236,
                        -0.002181238727644086,
                        0.007511927280575037,
                        -0.12897002696990967,
                        -0.0038480637595057487,
                        -0.03130664303898811,
                        -0.004253682214766741,
                        0.006690545007586479,
                        -0.02408749610185623,
                        -0.03175865113735199,
                        -0.16530604660511017,
                        -0.006690248381346464,
                        0.035125527530908585,
                        -0.003289643209427595,
                        0.0023352166172116995,
                        -0.001493047340773046,
                        -0.0028167860582470894,
                        -0.00656732777133584,
                        0.0007322425371967256,
                        -0.017517738044261932,
                        -0.012095071375370026,
                        0.04263688251376152,
                        0.0060091507621109486,
                        -0.03909126669168472,
                        0.07347071915864944,
                        0.024327967315912247,
                        -0.05150751397013664,
                        0.019642557948827744,
                        0.03897674009203911,
                        0.036677174270153046,
                        -0.0066371881403028965,
                        0.004814391955733299,
                        -0.009182464331388474,
                        0.0017025354318320751,
                        -0.02171650156378746,
                        0.004702829755842686,
                        -0.32297882437705994,
                        -0.14194832742214203,
                        0.051090069115161896,
                        -0.7065759897232056,
                        0.35701021552085876,
                        -0.05589095130562782,
                        -0.03456899896264076,
                        0.053655512630939484,
                        0.0038861169014126062,
                        0.12003275752067566,
                        0.2286916971206665,
                        -0.08853600174188614,
                        -0.017895206809043884,
                        -0.19102132320404053,
                        -0.12304595112800598,
                        0.15805955231189728,
                        -0.005816985387355089,
                        0.03601546585559845,
                        0.00948694534599781,
                        0.22742745280265808,
                        -3.5128894523950294e-05,
                        0.00810316950082779,
                        -0.021171987056732178,
                        -0.023174617439508438,
                        0.03624733164906502,
                        -0.015952404588460922,
                        0.005178727675229311,
                        -0.011267931200563908,
                        0.025516817346215248,
                        0.008654220961034298,
                        -0.01620985008776188,
                        -0.008967423811554909,
                        -0.012529450468719006,
                        -0.017079858109354973,
                        -0.01669083721935749,
                        -0.0006233189487829804,
                        0.01198683213442564,
                        -0.030942991375923157,
                        0.029556255787611008,
                        -0.001711570774205029
                    ],
                    [
                        -0.05585518106818199,
                        0.0017292615957558155,
                        -0.020594147965312004,
                        0.036887332797050476,
                        -0.014609837904572487,
                        0.005591825116425753,
                        0.02066279761493206,
                        -0.0661659762263298,
                        0.07220987975597382,
                        -0.09779777377843857,
                        -0.01351130474358797,
                        0.01120496541261673,
                        -0.016143515706062317,
                        -0.03227368742227554,
                        0.07379985600709915,
                        0.015062343329191208,
                        -0.10806182026863098,
                        0.020995380356907845,
                        -0.010065658017992973,
                        -2.283409958181437e-05,
                        -0.03189537301659584,
                        0.050197578966617584,
                        -0.03666530176997185,
                        -0.012921493500471115,
                        -0.06075536087155342,
                        -0.061305247247219086,
                        0.03422900661826134,
                        -0.08866914361715317,
                        0.08762846887111664,
                        -0.0038486274424940348,
                        -0.106519415974617,
                        0.00034777328255586326,
                        -0.10978357493877411,
                        -0.0705573633313179,
                        -0.05277916416525841,
                        0.05243920907378197,
                        -0.015896502882242203,
                        0.015436802990734577,
                        -0.003659419482573867,
                        -0.01200857199728489,
                        0.13455384969711304,
                        0.02122066169977188,
                        0.13915860652923584,
                        0.767758846282959,
                        0.25851261615753174,
                        0.12161166965961456,
                        -0.04020390659570694,
                        -0.04726221412420273,
                        -0.12068966776132584,
                        0.23339730501174927,
                        0.15809179842472076,
                        0.03901459276676178,
                        0.3496699035167694,
                        -0.09701985120773315,
                        0.041014160960912704,
                        0.06198693811893463,
                        -0.036748919636011124,
                        0.11028026789426804,
                        0.19316257536411285,
                        -0.6701525449752808,
                        -0.018162982538342476,
                        -0.0025677240919321775,
                        -0.02025458589196205,
                        0.03694316744804382,
                        -0.024137943983078003,
                        -0.05123128369450569,
                        0.0223592109978199,
                        -0.05094275623559952,
                        0.03359133005142212,
                        -0.02632640115916729,
                        -0.044598791748285294,
                        0.0073900045827031136,
                        -0.05166930705308914,
                        -0.056816551834344864,
                        -0.0003404139424674213,
                        0.012030543759465218,
                        -0.07268444448709488,
                        0.045729704201221466,
                        0.020248671993613243,
                        -0.002718457020819187
                    ],
                    [
                        -0.06821693480014801,
                        0.05402664467692375,
                        0.03672138601541519,
                        -0.040853261947631836,
                        -0.04898897930979729,
                        0.043844789266586304,
                        -0.01131519302725792,
                        -0.19430020451545715,
                        0.06028807535767555,
                        0.10859315097332001,
                        -0.00549264345318079,
                        0.033911291509866714,
                        0.0329296812415123,
                        -0.024269478395581245,
                        0.009536448866128922,
                        -0.014384363777935505,
                        0.036952946335077286,
                        -0.00812827330082655,
                        -0.033838752657175064,
                        -0.12352971732616425,
                        0.1046573668718338,
                        -0.008418131619691849,
                        0.030342664569616318,
                        0.09987913072109222,
                        -0.04289130121469498,
                        0.07982225716114044,
                        0.011800738051533699,
                        0.007221808657050133,
                        0.09811446815729141,
                        0.0747339129447937,
                        -0.044960372149944305,
                        -0.026862971484661102,
                        -0.0007739024586044252,
                        0.07632561028003693,
                        0.00659622997045517,
                        -0.014659305103123188,
                        0.11333038657903671,
                        -0.021481577306985855,
                        -0.06709660589694977,
                        -0.010548815131187439,
                        -0.012914500199258327,
                        -0.09601080417633057,
                        -0.05955301597714424,
                        -0.041985753923654556,
                        0.14477823674678802,
                        -0.29870545864105225,
                        0.04273897409439087,
                        -0.05178968980908394,
                        -0.1170644760131836,
                        -0.05453025922179222,
                        0.010520408861339092,
                        0.05432780459523201,
                        -0.06756836175918579,
                        0.13512547314167023,
                        0.48618748784065247,
                        -0.11171060800552368,
                        0.09991832822561264,
                        0.09473145753145218,
                        0.0908617153763771,
                        -0.0925118550658226,
                        -0.05668635293841362,
                        -0.07357815653085709,
                        0.042850296944379807,
                        -0.039084576070308685,
                        -0.11422166973352432,
                        0.0209475290030241,
                        -0.012026607058942318,
                        -0.136003777384758,
                        0.04951281100511551,
                        -0.0321480855345726,
                        -0.03990287333726883,
                        0.023857595399022102,
                        0.03304098919034004,
                        -0.018571341410279274,
                        -0.017145570367574692,
                        -0.014328950084745884,
                        0.024624472483992577,
                        0.022093335166573524,
                        -0.012707680463790894,
                        -0.12449415028095245
                    ],
                    [
                        0.0375472754240036,
                        0.018826620653271675,
                        -0.000518585613463074,
                        0.01730336621403694,
                        0.07516487687826157,
                        -0.005612371023744345,
                        -0.0010237675160169601,
                        -0.11618278175592422,
                        -0.031457144767045975,
                        -0.09944464266300201,
                        -0.004107062704861164,
                        -0.005142832174897194,
                        -0.009407843463122845,
                        0.03904879093170166,
                        -0.12822091579437256,
                        -0.034136880189180374,
                        0.05532503128051758,
                        0.004652272444218397,
                        0.03110913373529911,
                        0.025076372548937798,
                        0.02100568450987339,
                        0.05812004953622818,
                        0.0024234349839389324,
                        0.007529257796704769,
                        0.06510913372039795,
                        0.06458406895399094,
                        -0.006450293119996786,
                        -0.034391555935144424,
                        -0.008177140727639198,
                        -0.12923310697078705,
                        -0.01090804673731327,
                        -0.00048679596511647105,
                        0.01588178239762783,
                        0.012907834723591805,
                        0.018444573506712914,
                        -0.06145791336894035,
                        0.03283029794692993,
                        0.008037514984607697,
                        -0.030326327309012413,
                        -0.005367956589907408,
                        -0.14836889505386353,
                        -0.39599376916885376,
                        0.06642678380012512,
                        -0.033227432519197464,
                        -0.09658809006214142,
                        -0.25555312633514404,
                        -0.2119123637676239,
                        -0.1407284438610077,
                        0.016630280762910843,
                        -0.12465362250804901,
                        0.06131705641746521,
                        0.09216972440481186,
                        -0.2169659435749054,
                        0.10911151766777039,
                        -0.09565772116184235,
                        0.023521648719906807,
                        -0.257124125957489,
                        -0.006640442181378603,
                        -0.2958293855190277,
                        -0.004515385255217552,
                        0.030381862074136734,
                        -0.0001404119102517143,
                        0.0028984190430492163,
                        0.017535988241434097,
                        0.07091382890939713,
                        0.05354605242609978,
                        0.0012802606215700507,
                        -0.025562722235918045,
                        -0.016092808917164803,
                        -0.08386719226837158,
                        0.003474657190963626,
                        0.001853904570452869,
                        0.007032894063740969,
                        0.034021709114313126,
                        -0.0060715884901583195,
                        -0.03046579100191593,
                        0.03235282376408577,
                        0.013195231556892395,
                        0.015759404748678207,
                        0.025125812739133835
                    ],
                    [
                        -0.015707390382885933,
                        -0.0610937625169754,
                        -0.020100407302379608,
                        -0.07526438683271408,
                        -0.10073251277208328,
                        -0.07566207647323608,
                        -0.05706748366355896,
                        0.20787811279296875,
                        -0.0807732567191124,
                        0.21874700486660004,
                        -0.03025275282561779,
                        -0.02864697389304638,
                        0.0027580426540225744,
                        -0.018914619460701942,
                        0.06657367944717407,
                        -0.02129775658249855,
                        0.01720886491239071,
                        -0.03656254708766937,
                        -0.03724110871553421,
                        -0.0818280279636383,
                        0.02171550877392292,
                        -0.11410077661275864,
                        -0.023816224187612534,
                        0.045144032686948776,
                        -0.07714024186134338,
                        -0.028276611119508743,
                        -0.0016117916675284505,
                        -0.04334613308310509,
                        -0.1481504887342453,
                        -0.04424377530813217,
                        0.023174617439508438,
                        -0.014006323181092739,
                        0.03810500726103783,
                        0.0014136290410533547,
                        -0.047536227852106094,
                        -0.021285420283675194,
                        0.006844126153737307,
                        -0.0432157889008522,
                        -0.03669392317533493,
                        0.020112285390496254,
                        -0.0381256528198719,
                        -0.24168066680431366,
                        -0.13389861583709717,
                        0.21175599098205566,
                        -0.5932237505912781,
                        -0.12402993440628052,
                        0.12267585098743439,
                        -0.20008766651153564,
                        0.18706487119197845,
                        0.004629464820027351,
                        -0.20503436028957367,
                        0.09698265790939331,
                        -0.26230382919311523,
                        -0.02248540148139,
                        0.21007737517356873,
                        0.0058128186501562595,
                        0.24900281429290771,
                        -0.034701552242040634,
                        -0.33099365234375,
                        0.20129959285259247,
                        -0.044867489486932755,
                        -0.08677688986063004,
                        -0.0032930346205830574,
                        -0.0794912800192833,
                        -0.11381062120199203,
                        -0.05788750573992729,
                        -0.060374870896339417,
                        -0.022101277485489845,
                        -0.05877077579498291,
                        -0.04629077389836311,
                        -0.07096105813980103,
                        -0.006838593631982803,
                        0.02324085123836994,
                        -0.016872422769665718,
                        -0.025022460147738457,
                        -0.022087840363383293,
                        -0.00041626844904385507,
                        -0.009969333186745644,
                        -0.08608031272888184,
                        -0.08247986435890198
                    ],
                    [
                        -0.07024002820253372,
                        -0.13770276308059692,
                        -0.01970832608640194,
                        -0.11083199083805084,
                        -0.07022468745708466,
                        -0.04872923716902733,
                        -0.09952155500650406,
                        0.23057328164577484,
                        -0.0016811293317005038,
                        0.2065456211566925,
                        -0.05857197567820549,
                        1.2474389450289891e-06,
                        -0.031640347093343735,
                        -0.058409810066223145,
                        0.14101442694664001,
                        -0.06321317702531815,
                        -0.010536872781813145,
                        -0.05221160128712654,
                        -0.05955766886472702,
                        -0.12774093449115753,
                        -0.02085988223552704,
                        -0.07613168656826019,
                        -0.03808879107236862,
                        -0.05754968896508217,
                        -0.004874964244663715,
                        -0.09577233344316483,
                        0.024080781266093254,
                        -0.235500767827034,
                        0.002713469322770834,
                        -0.23901227116584778,
                        -0.16385915875434875,
                        -0.06344839185476303,
                        0.009393743239343166,
                        0.03758690878748894,
                        -0.22430309653282166,
                        -0.027399204671382904,
                        -0.03631070256233215,
                        -0.059095609933137894,
                        0.06154114007949829,
                        0.03905199095606804,
                        0.14007468521595,
                        -0.1817379593849182,
                        0.06970274448394775,
                        -0.3615613281726837,
                        0.21343448758125305,
                        0.11961425840854645,
                        0.05792289599776268,
                        0.21584337949752808,
                        -0.004784282762557268,
                        0.019392509013414383,
                        0.27811944484710693,
                        0.08581673353910446,
                        0.09966842085123062,
                        0.0784991979598999,
                        0.026189586147665977,
                        0.08183278888463974,
                        0.08637848496437073,
                        0.054964277893304825,
                        0.21099853515625,
                        0.21127429604530334,
                        -0.09110832959413528,
                        -0.14153078198432922,
                        -0.026267442852258682,
                        -0.12751013040542603,
                        -0.07921292632818222,
                        -0.19693757593631744,
                        -0.10926829278469086,
                        -0.05966070666909218,
                        -0.013380033895373344,
                        -0.06900933384895325,
                        -0.07806050032377243,
                        -0.02178986184298992,
                        -0.03963134065270424,
                        -0.05277223885059357,
                        -0.008872485719621181,
                        -0.06064770370721817,
                        -0.032441094517707825,
                        -0.08512504398822784,
                        -0.02880801074206829,
                        -0.13491857051849365
                    ],
                    [
                        0.11175321787595749,
                        0.15704527497291565,
                        0.08415922522544861,
                        0.1971869021654129,
                        0.2720690071582794,
                        0.11127615720033646,
                        0.0803593173623085,
                        -0.5930270552635193,
                        0.10221843421459198,
                        -0.4263879656791687,
                        0.0803244411945343,
                        0.09685613960027695,
                        0.09178432077169418,
                        0.1853310763835907,
                        -0.27301025390625,
                        0.026431448757648468,
                        0.0651465430855751,
                        0.08311178535223007,
                        0.15154659748077393,
                        0.1826256960630417,
                        0.03942226245999336,
                        -0.10276105254888535,
                        0.06230495497584343,
                        0.010256594978272915,
                        0.06842237710952759,
                        0.06285541504621506,
                        -0.053778741508722305,
                        0.602694571018219,
                        0.18527363240718842,
                        0.21857863664627075,
                        0.08637522906064987,
                        -0.002987690269947052,
                        0.07225620746612549,
                        0.0357392244040966,
                        0.35008227825164795,
                        -0.017999855801463127,
                        0.15461230278015137,
                        0.10940681397914886,
                        0.188890740275383,
                        -0.08274655044078827,
                        0.029109051451086998,
                        -0.8359196186065674,
                        -0.19783398509025574,
                        0.06290241330862045,
                        0.41188284754753113,
                        -0.2176447957754135,
                        0.4888254404067993,
                        0.03224906325340271,
                        0.15195013582706451,
                        0.19770017266273499,
                        0.24323683977127075,
                        0.11838651448488235,
                        0.11250055581331253,
                        -0.04503927752375603,
                        -0.05458711087703705,
                        0.3232134282588959,
                        -0.10511822253465652,
                        -0.007585886865854263,
                        -0.05418776348233223,
                        0.35422712564468384,
                        0.10530182719230652,
                        -0.3498324751853943,
                        0.09539066255092621,
                        0.20931531488895416,
                        0.2642348110675812,
                        0.036975789815187454,
                        0.09059524536132812,
                        0.09158835560083389,
                        0.15274007618427277,
                        0.05760667100548744,
                        0.15374957025051117,
                        0.09667155146598816,
                        0.09741080552339554,
                        0.1984434723854065,
                        -0.0773700401186943,
                        0.04127219691872597,
                        0.09786564856767654,
                        0.11119094491004944,
                        0.3056287467479706,
                        0.18983085453510284
                    ],
                    [
                        0.05908564105629921,
                        0.012647207826375961,
                        0.005046097096055746,
                        0.04509059712290764,
                        0.023607026785612106,
                        -0.056568656116724014,
                        -0.0017745642689988017,
                        -0.01897599920630455,
                        -0.01188204251229763,
                        -0.04642972722649574,
                        -0.0018094173865392804,
                        -0.040438175201416016,
                        -0.027162285521626472,
                        0.054187096655368805,
                        -0.0897563248872757,
                        -0.026489319279789925,
                        0.12313398718833923,
                        0.009728199802339077,
                        0.03195793181657791,
                        0.0024756048806011677,
                        0.07637462019920349,
                        -0.01150958426296711,
                        0.004783620126545429,
                        0.004636369179934263,
                        -0.033970609307289124,
                        0.036842092871665955,
                        -0.001695011043921113,
                        0.025998374447226524,
                        -0.018785133957862854,
                        -0.06448730826377869,
                        0.012933260761201382,
                        -0.01557947974652052,
                        0.04528184235095978,
                        0.019809279590845108,
                        0.03656703233718872,
                        -0.029497547075152397,
                        0.03329981490969658,
                        0.021337874233722687,
                        0.019210761412978172,
                        -0.006654398050159216,
                        -0.27826595306396484,
                        -0.722175657749176,
                        -0.00323047349229455,
                        -0.6428534984588623,
                        -0.5923787355422974,
                        -0.3617762625217438,
                        0.23740677535533905,
                        -0.03632880747318268,
                        0.12466588616371155,
                        -0.221181258559227,
                        -0.017056867480278015,
                        -0.00881580263376236,
                        -0.15314452350139618,
                        0.5844074487686157,
                        0.16102227568626404,
                        0.008103163912892342,
                        -0.3367510735988617,
                        -0.0802830383181572,
                        -0.3403543531894684,
                        -0.5466198921203613,
                        0.04886147752404213,
                        -0.04848873242735863,
                        0.0011472284095361829,
                        0.01124120969325304,
                        0.03821537271142006,
                        0.013775729574263096,
                        0.000854837941005826,
                        -0.008516638539731503,
                        -0.01099206879734993,
                        0.019843729212880135,
                        0.03487181290984154,
                        -0.013177693821489811,
                        0.022950319573283195,
                        0.050786878913640976,
                        -0.032667819410562515,
                        -0.016384704038500786,
                        0.06678975373506546,
                        0.036332931369543076,
                        -0.006406147964298725,
                        0.006991456262767315
                    ]
                ],
                [
                    0.6262672543525696,
                    0.9678874015808105,
                    0.29274290800094604,
                    1.0222764015197754,
                    0.9196769595146179,
                    0.7499603629112244,
                    0.7025007605552673,
                    -1.611229658126831,
                    0.2630328834056854,
                    -0.6562212109565735,
                    0.530546098947525,
                    0.3534512519836426,
                    0.494662880897522,
                    0.5986763834953308,
                    -0.5572537779808044,
                    0.3605773448944092,
                    0.22554371505975723,
                    0.29183003306388855,
                    0.6481989622116089,
                    0.8937457501888275,
                    0.01331035466864705,
                    -0.2408929318189621,
                    0.25728926062583923,
                    -0.19559018313884735,
                    -0.0597876301035285,
                    0.4618593007326126,
                    -0.21228179335594177,
                    2.231355667114258,
                    0.3611774742603302,
                    1.413783609867096,
                    0.4594942778348923,
                    0.2270551323890686,
                    0.03794392850250006,
                    -0.12519055232405663,
                    1.389983355998993,
                    0.02222308050841093,
                    0.3842024654150009,
                    0.205431267619133,
                    0.27340686321258545,
                    -0.3925802707672119,
                    -0.0733964666724205,
                    0.15870487689971924,
                    -0.17591756954789162,
                    0.0973690077662468,
                    0.047805167734622955,
                    -0.5514010041952133,
                    0.0632987767457962,
                    0.026719149202108383,
                    0.03964594006538391,
                    0.13700028508901596,
                    -0.20360106229782104,
                    0.3706261217594147,
                    -0.19390782341361046,
                    0.004349975293735042,
                    -0.20306403003633022,
                    0.12108195573091507,
                    -0.14191222190856934,
                    -0.2610420361161232,
                    0.04897407867247239,
                    0.06933741457760334,
                    0.7071471810340881,
                    0.32134418189525604,
                    0.22611944377422333,
                    1.1010339856147766,
                    0.8729732632637024,
                    1.0192365646362305,
                    0.7422568202018738,
                    0.337832048535347,
                    0.5389809608459473,
                    0.3073866069316864,
                    0.7267148792743683,
                    0.449379101395607,
                    0.5588895380496979,
                    0.6509807407855988,
                    0.2056606039404869,
                    0.37721753120422363,
                    0.5043209344148636,
                    0.37484633922576904,
                    0.9278146028518677,
                    0.9331386983394623
                ]
            ]
        },
        {
            "type": "dense",
            "activation": "",
            "shape": [
                null,
                null,
                1
            ],
            "weights": [
                [
                    [
                        -0.03830321133136749
                    ],
                    [
                        -0.45931315422058105
                    ],
                    [
                        -0.1413463056087494
                    ],
                    [
                        0.011409636586904526
                    ],
                    [
                        -0.004612057004123926
                    ],
                    [
                        0.02176159992814064
                    ],
                    [
                        0.09862516075372696
                    ],
                    [
                        0.35471394658088684
                    ],
                    [
                        0.010663619264960289
                    ],
                    [
                        -0.010884317569434643
                    ],
                    [
                        0.16067565977573395
                    ],
                    [
                        -0.2825331389904022
                    ],
                    [
                        0.06272292137145996
                    ],
                    [
                        0.060347456485033035
                    ],
                    [
                        0.13726839423179626
                    ],
                    [
                        0.06491968035697937
                    ],
                    [
                        0.05677305534482002
                    ],
                    [
                        -0.16523481905460358
                    ],
                    [
                        -0.01656326651573181
                    ],
                    [
                        -0.266330748796463
                    ]
                ],
                [
                    0.07498738169670105
                ]
            ]
        }
    ],
    "input_batch": [
        -4.76837158203125e-07,
        7.152557373046875e-07,
        -8.344650268554688e-07,
        7.152557373046875e-07,
        -5.960464477539062e-07,
        4.76837158203125e-07,
        -2.384185791015625e-07,
        1.1920928955078125e-07,
        -2.384185791015625e-07,
        3.5762786865234375e-07,
        -3.5762786865234375e-07,
        3.5762786865234375e-07,
        -2.384185791015625e-07,
        1.1920928955078125e-07,
        -1.1920928955078125e-07,
        1.1920928955078125e-07,
        -1.1920928955078125e-07,
        1.1920928955078125e-07,
        -1.1920928955078125e-07,
        0.0,
        1.1920928955078125e-07,
        -2.384185791015625e-07,
        2.384185791015625e-07,
        -2.384185791015625e-07,
        2.384185791015625e-07,
        -2.384185791015625e-07,
        2.384185791015625e-07,
        -2.384185791015625e-07,
        1.1920928955078125e-07,
        1.1920928955078125e-07,
        -3.5762786865234375e-07,
        4.76837158203125e-07,
        -4.76837158203125e-07,
        3.5762786865234375e-07,
        -1.1920928955078125e-07,
        -1.1920928955078125e-07,
        2.384185791015625e-07,
        -2.384185791015625e-07,
        1.1920928955078125e-07,
        0.0,
        -1.1920928955078125e-07,
        2.384185791015625e-07,
        -2.384185791015625e-07,
        2.384185791015625e-07,
        -2.384185791015625e-07,
        1.1920928955078125e-07,
        0.0,
        0.0,
        0.0,
        0.0,
        0.0,
        0.0,
        1.1920928955078125e-07,
        -3.5762786865234375e-07,
        4.76837158203125e-07,
        -4.76837158203125e-07,
        3.5762786865234375e-07,
        -1.1920928955078125e-07,
        0.0,
        0.0,
        -1.1920928955078125e-07,
        2.384185791015625e-07,
        -2.384185791015625e-07,
        2.384185791015625e-07,
        -1.1920928955078125e-07,
        -1.1920928955078125e-07,
        2.384185791015625e-07,
        -2.384185791015625e-07,
        2.384185791015625e-07,
        -1.1920928955078125e-07,
        0.0,
        0.0,
        -1.1920928955078125e-07,
        2.384185791015625e-07,
        -2.384185791015625e-07,
        3.5762786865234375e-07,
        -4.76837158203125e-07,
        3.5762786865234375e-07,
        -1.1920928955078125e-07,
        -1.1920928955078125e-07,
        2.384185791015625e-07,
        -2.384185791015625e-07,
        1.1920928955078125e-07,
        0.0,
        0.0,
        -1.1920928955078125e-07,
        2.384185791015625e-07,
        -3.5762786865234375e-07,
        3.5762786865234375e-07,
        -3.5762786865234375e-07,
        3.5762786865234375e-07,
        -2.384185791015625e-07,
        1.1920928955078125e-07,
        -1.1920928955078125e-07,
        1.1920928955078125e-07,
        -1.1920928955078125e-07,
        1.1920928955078125e-07,
        0.0,
        -1.1920928955078125e-07,
        1.1920928955078125e-07,
        0.0,
        -2.384185791015625e-07,
        3.5762786865234375e-07,
        -3.5762786865234375e-07,
        2.384185791015625e-07,
        -1.1920928955078125e-07,
        0.0,
        1.1920928955078125e-07,
        -2.384185791015625e-07,
        3.5762786865234375e-07,
        -4.76837158203125e-07,
        3.5762786865234375e-07,
        -1.1920928955078125e-07,
        0.0,
        1.1920928955078125e-07,
        -1.1920928955078125e-07,
        0.0,
        1.1920928955078125e-07,
        -2.384185791015625e-07,
        3.5762786865234375e-07,
        -3.5762786865234375e-07,
        2.384185791015625e-07,
        -1.1920928955078125e-07,
        1.1920928955078125e-07,
        -1.1920928955078125e-07,
        1.1920928955078125e-07,
        -2.384185791015625e-07,
        2.384185791015625e-07,
        -1.1920928955078125e-07,
        0.0,
        1.1920928955078125e-07,
        -1.1920928955078125e-07,
        0.0,
        0.0,
        0.0,
        1.1920928955078125e-07,
        -1.1920928955078125e-07,
        0.0,
        0.0,
        1.1920928955078125e-07,
        -1.1920928955078125e-07,
        1.1920928955078125e-07,
        -2.384185791015625e-07,
        3.5762786865234375e-07,
        -3.5762786865234375e-07,
        2.384185791015625e-07,
        0.0,
        -1.1920928955078125e-07,
        1.1920928955078125e-07,
        -1.1920928955078125e-07,
        0.0,
        1.1920928955078125e-07,
        -1.1920928955078125e-07,
        1.1920928955078125e-07,
        0.0,
        -1.1920928955078125e-07,
        1.1920928955078125e-07,
        0.0,
        -1.1920928955078125e-07,
        2.384185791015625e-07,
        -3.5762786865234375e-07,
        3.5762786865234375e-07,
        -2.384185791015625e-07,
        2.384185791015625e-07,
        -2.384185791015625e-07,
        1.1920928955078125e-07,
        -1.1920928955078125e-07,
        1.1920928955078125e-07,
        0.0,
        -1.1920928955078125e-07,
        2.384185791015625e-07,
        -3.5762786865234375e-07,
        3.5762786865234375e-07,
        -3.5762786865234375e-07,
        2.384185791015625e-07,
        -1.1920928955078125e-07,
        1.1920928955078125e-07,
        0.0,
        -2.384185791015625e-07,
        2.384185791015625e-07,
        -1.1920928955078125e-07,
        0.0,
        1.1920928955078125e-07,
        -1.1920928955078125e-07,
        0.0,
        0.0,
        0.0,
        0.0,
        1.1920928955078125e-07,
        -1.1920928955078125e-07,
        -1.1920928955078125e-07,
        2.384185791015625e-07,
        -2.384185791015625e-07,
        2.384185791015625e-07,
        -1.1920928955078125e-07,
        0.0,
        1.1920928955078125e-07,
        -3.5762786865234375e-07,
        4.76837158203125e-07,
        -5.960464477539062e-07,
        7.152557373046875e-07,
        -5.960464477539062e-07,
        3.5762786865234375e-07,
        -1.1920928955078125e-07,
        -1.1920928955078125e-07,
        2.384185791015625e-07,
        -2.384185791015625e-07,
        2.384185791015625e-07,
        -1.1920928955078125e-07,
        0.0,
        0.0,
        1.1920928955078125e-07,
        -2.384185791015625e-07,
        3.5762786865234375e-07,
        -4.76837158203125e-07,
        4.76837158203125e-07,
        -3.5762786865234375e-07,
        3.5762786865234375e-07,
        -4.76837158203125e-07,
        5.960464477539062e-07,
        -5.960464477539062e-07,
        4.76837158203125e-07,
        -2.384185791015625e-07,
        0.0,
        1.1920928955078125e-07,
        -1.1920928955078125e-07,
        0.0,
        0.0,
        1.1920928955078125e-07,
        -1.1920928955078125e-07,
        1.1920928955078125e-07,
        -2.384185791015625e-07,
        2.384185791015625e-07,
        -1.1920928955078125e-07,
        1.1920928955078125e-07,
        -1.1920928955078125e-07,
        0.0,
        1.1920928955078125e-07,
        -1.1920928955078125e-07,
        0.0,
        1.1920928955078125e-07,
        -2.384185791015625e-07,
        3.5762786865234375e-07,
        -3.5762786865234375e-07,
        1.1920928955078125e-07,
        1.1920928955078125e-07,
        -1.1920928955078125e-07,
        1.1920928955078125e-07,
        -1.1920928955078125e-07,
        0.0,
        1.1920928955078125e-07,
        -1.1920928955078125e-07,
        1.1920928955078125e-07,
        -1.1920928955078125e-07,
        1.1920928955078125e-07,
        -1.1920928955078125e-07,
        1.1920928955078125e-07,
        -2.384185791015625e-07,
        4.76837158203125e-07,
        -7.152557373046875e-07,
        8.344650268554688e-07,
        -8.344650268554688e-07,
        5.960464477539062e-07,
        -2.384185791015625e-07,
        0.0,
        1.1920928955078125e-07,
        -2.384185791015625e-07,
        2.384185791015625e-07,
        -1.1920928955078125e-07,
        1.1920928955078125e-07,
        -2.384185791015625e-07,
        2.384185791015625e-07,
        -1.1920928955078125e-07,
        1.1920928955078125e-07,
        0.0,
        -1.1920928955078125e-07,
        1.1920928955078125e-07,
        0.0,
        0.0,
        0.0,
        0.0,
        -1.1920928955078125e-07,
        1.1920928955078125e-07,
        -1.1920928955078125e-07,
        2.384185791015625e-07,
        -2.384185791015625e-07,
        0.0,
        1.1920928955078125e-07,
        -2.384185791015625e-07,
        4.76837158203125e-07,
        -5.960464477539062e-07,
        5.960464477539062e-07,
        -5.960464477539062e-07,
        4.76837158203125e-07,
        -2.384185791015625e-07,
        1.1920928955078125e-07,
        0.0,
        -2.384185791015625e-07,
        3.5762786865234375e-07,
        -3.5762786865234375e-07,
        3.5762786865234375e-07,
        -2.384185791015625e-07,
        0.0,
        1.1920928955078125e-07,
        0.0,
        0.0,
        -1.1920928955078125e-07,
        1.1920928955078125e-07,
        -1.1920928955078125e-07,
        1.1920928955078125e-07,
        0.0,
        -1.1920928955078125e-07,
        1.1920928955078125e-07,
        0.0,
        -1.1920928955078125e-07,
        1.1920928955078125e-07,
        -1.1920928955078125e-07,
        1.1920928955078125e-07,
        0.0,
        -1.1920928955078125e-07,
        1.1920928955078125e-07,
        0.0,
        -1.1920928955078125e-07,
        1.1920928955078125e-07,
        -1.1920928955078125e-07,
        1.1920928955078125e-07,
        -1.1920928955078125e-07,
        2.384185791015625e-07,
        -3.5762786865234375e-07,
        3.5762786865234375e-07,
        -2.384185791015625e-07,
        1.1920928955078125e-07,
        0.0,
        0.0,
        -1.1920928955078125e-07,
        2.384185791015625e-07,
        -2.384185791015625e-07,
        2.384185791015625e-07,
        -2.384185791015625e-07,
        1.1920928955078125e-07,
        0.0,
        0.0,
        0.0,
        0.0,
        -1.1920928955078125e-07,
        2.384185791015625e-07,
        -2.384185791015625e-07,
        2.384185791015625e-07,
        -2.384185791015625e-07,
        1.1920928955078125e-07,
        -1.1920928955078125e-07,
        2.384185791015625e-07,
        -2.384185791015625e-07,
        2.384185791015625e-07,
        -2.384185791015625e-07,
        1.1920928955078125e-07,
        0.0,
        0.0,
        0.0,
        0.0,
        1.1920928955078125e-07,
        -2.384185791015625e-07,
        2.384185791015625e-07,
        -3.5762786865234375e-07,
        4.76837158203125e-07,
        -3.5762786865234375e-07,
        2.384185791015625e-07,
        -1.1920928955078125e-07,
        -1.1920928955078125e-07,
        2.384185791015625e-07,
        -2.384185791015625e-07,
        2.384185791015625e-07,
        -1.1920928955078125e-07,
        0.0,
        1.1920928955078125e-07,
        -2.384185791015625e-07,
        2.384185791015625e-07,
        -2.384185791015625e-07,
        2.384185791015625e-07,
        -2.384185791015625e-07,
        2.384185791015625e-07,
        -2.384185791015625e-07,
        1.1920928955078125e-07,
        0.0,
        -1.1920928955078125e-07,
        1.1920928955078125e-07,
        0.0,
        -1.1920928955078125e-07,
        1.1920928955078125e-07,
        0.0,
        -1.1920928955078125e-07,
        2.384185791015625e-07,
        -2.384185791015625e-07,
        1.1920928955078125e-07,
        0.0,
        -1.1920928955078125e-07,
        2.384185791015625e-07,
        -2.384185791015625e-07,
        1.1920928955078125e-07,
        0.0,
        -1.1920928955078125e-07,
        1.1920928955078125e-07,
        -1.1920928955078125e-07,
        1.1920928955078125e-07,
        -1.1920928955078125e-07,
        1.1920928955078125e-07,
        -1.1920928955078125e-07,
        0.0,
        0.0,
        1.1920928955078125e-07,
        -2.384185791015625e-07,
        3.5762786865234375e-07,
        -4.76837158203125e-07,
        3.5762786865234375e-07,
        -1.1920928955078125e-07,
        0.0,
        0.0,
        0.0,
        0.0,
        0.0,
        1.1920928955078125e-07,
        -2.384185791015625e-07,
        1.1920928955078125e-07,
        0.0,
        -1.1920928955078125e-07,
        3.5762786865234375e-07,
        -3.5762786865234375e-07,
        1.1920928955078125e-07,
        0.0,
        0.0,
        0.0,
        1.1920928955078125e-07,
        -2.384185791015625e-07,
        1.1920928955078125e-07,
        1.1920928955078125e-07,
        -2.384185791015625e-07,
        2.384185791015625e-07,
        -2.384185791015625e-07,
        1.1920928955078125e-07,
        0.0,
        -1.1920928955078125e-07,
        1.1920928955078125e-07,
        -1.1920928955078125e-07,
        2.384185791015625e-07,
        -3.5762786865234375e-07,
        4.76837158203125e-07,
        -5.960464477539062e-07,
        5.960464477539062e-07,
        -4.76837158203125e-07,
        3.5762786865234375e-07,
        -1.1920928955078125e-07,
        0.0,
        0.0,
        0.0,
        0.0,
        0.0,
        1.1920928955078125e-07,
        -3.5762786865234375e-07,
        5.960464477539062e-07,
        -7.152557373046875e-07,
        7.152557373046875e-07,
        -5.960464477539062e-07,
        4.76837158203125e-07,
        -3.5762786865234375e-07,
        2.384185791015625e-07,
        -2.384185791015625e-07,
        2.384185791015625e-07,
        0.0,
        -2.384185791015625e-07,
        2.384185791015625e-07,
        -2.384185791015625e-07,
        1.1920928955078125e-07,
        1.1920928955078125e-07,
        -2.384185791015625e-07,
        1.1920928955078125e-07,
        0.0,
        -1.1920928955078125e-07,
        1.1920928955078125e-07,
        -1.1920928955078125e-07,
        1.1920928955078125e-07,
        -1.1920928955078125e-07,
        1.1920928955078125e-07,
        -1.1920928955078125e-07,
        0.0,
        2.384185791015625e-07,
        -4.76837158203125e-07,
        5.960464477539062e-07,
        -5.960464477539062e-07,
        4.76837158203125e-07,
        -2.384185791015625e-07,
        0.0,
        1.1920928955078125e-07,
        -1.1920928955078125e-07,
        0.0,
        1.1920928955078125e-07,
        -1.1920928955078125e-07,
        1.1920928955078125e-07,
        -2.384185791015625e-07,
        3.5762786865234375e-07,
        -3.5762786865234375e-07,
        2.384185791015625e-07,
        0.0,
        -2.384185791015625e-07,
        3.5762786865234375e-07,
        -2.384185791015625e-07,
        0.0,
        1.1920928955078125e-07,
        -1.1920928955078125e-07,
        2.384185791015625e-07,
        -2.384185791015625e-07,
        2.384185791015625e-07,
        -3.5762786865234375e-07,
        3.5762786865234375e-07,
        -2.384185791015625e-07,
        1.1920928955078125e-07,
        0.0,
        -1.1920928955078125e-07,
        1.1920928955078125e-07,
        -2.384185791015625e-07,
        3.5762786865234375e-07,
        -3.5762786865234375e-07,
        2.384185791015625e-07,
        -1.1920928955078125e-07,
        0.0,
        1.1920928955078125e-07,
        -1.1920928955078125e-07,
        0.0,
        1.1920928955078125e-07,
        -2.384185791015625e-07,
        3.5762786865234375e-07,
        -2.384185791015625e-07,
        0.0,
        1.1920928955078125e-07,
        -2.384185791015625e-07,
        3.5762786865234375e-07,
        -2.384185791015625e-07,
        0.0,
        1.1920928955078125e-07,
        -2.384185791015625e-07,
        3.5762786865234375e-07,
        -3.5762786865234375e-07,
        2.384185791015625e-07,
        -1.1920928955078125e-07,
        0.0,
        1.1920928955078125e-07,
        -1.1920928955078125e-07,
        -1.1920928955078125e-07,
        3.5762786865234375e-07,
        -3.5762786865234375e-07,
        2.384185791015625e-07,
        -1.1920928955078125e-07,
        0.0,
        -1.1920928955078125e-07,
        4.76837158203125e-07,
        -7.152557373046875e-07,
        5.960464477539062e-07,
        -3.5762786865234375e-07,
        1.1920928955078125e-07,
        1.1920928955078125e-07,
        -1.1920928955078125e-07,
        -1.1920928955078125e-07,
        3.5762786865234375e-07,
        -4.76837158203125e-07,
        3.5762786865234375e-07,
        -1.1920928955078125e-07,
        0.0,
        1.1920928955078125e-07,
        -2.384185791015625e-07,
        2.384185791015625e-07,
        -2.384185791015625e-07,
        3.5762786865234375e-07,
        -4.76837158203125e-07,
        4.76837158203125e-07,
        -3.5762786865234375e-07,
        2.384185791015625e-07,
        -1.1920928955078125e-07,
